<?xml version="1.0"?>
<opencv_storage>
<cascade>
  <stageType>BOOST</stageType>
  <featureType>LBP</featureType>
  <height>16</height>
  <width>24</width>
  <stageParams>
    <boostType>GAB</boostType>
    <minHitRate>9.9900001287460327e-001</minHitRate>
    <maxFalseAlarm>2.5000000000000000e-001</maxFalseAlarm>
    <weightTrimRate>9.4999999999999996e-001</weightTrimRate>
    <maxDepth>1</maxDepth>
    <maxWeakCount>100</maxWeakCount></stageParams>
  <featureParams>
    <maxCatCount>256</maxCatCount>
    <featSize>1</featSize></featureParams>
  <stageNum>10</stageNum>
  <stages>
    <!-- stage 0 -->
    <_>
      <maxWeakCount>4</maxWeakCount>
      <stageThreshold>-1.4762866497039795e+000</stageThreshold>
      <weakClassifiers>
        <_>
          <internalNodes>
            0 -1 37 -707265537 -1778384897 -1078888545 -17473 1945467391
            1475809010 -1208325137 933706528</internalNodes>
          <leafValues>
            -8.5213708877563477e-001 7.7975201606750488e-001</leafValues></_>
        <_>
          <internalNodes>
            0 -1 18 -151015441 80473039 1610711754 47049375 2112830215
            1884367283 -50305 2013248511</internalNodes>
          <leafValues>
            -8.0999815464019775e-001 7.5921040773391724e-001</leafValues></_>
        <_>
          <internalNodes>
            0 -1 20 67110389 1909802325 2099077119 -14869091 842022397
            -34067207 -1162298440 -1078974032</internalNodes>
          <leafValues>
            -7.4188131093978882e-001 8.0157601833343506e-001</leafValues></_>
        <_>
          <internalNodes>
            0 -1 34 17831260 -1655110147 -787210241 -10675715
            -1330370372 -1244653316 -1323160579 -1074259940</internalNodes>
          <leafValues>
            -7.0415920019149780e-001 7.1264559030532837e-001</leafValues></_></weakClassifiers></_>
    <!-- stage 1 -->
    <_>
      <maxWeakCount>5</maxWeakCount>
      <stageThreshold>-8.1335467100143433e-001</stageThreshold>
      <weakClassifiers>
        <_>
          <internalNodes>
            0 -1 12 -184553489 -360726289 -989615922 -1567708466
            -77870721 1941422651 -70538369 2012172255</internalNodes>
          <leafValues>
            -8.0354505777359009e-001 7.8911566734313965e-001</leafValues></_>
        <_>
          <internalNodes>
            0 -1 35 279974141 2008121333 -819201 -42632837 368328188
            -185319426 -1628258821 -1413992264</internalNodes>
          <leafValues>
            -6.1275547742843628e-001 8.4148389101028442e-001</leafValues></_>
        <_>
          <internalNodes>
            0 -1 65 0 -1181282091 -1786736129 -2289187 -1299705712
            -1173815123 973610492 -1146611496</internalNodes>
          <leafValues>
            -7.2385787963867188e-001 6.6960543394088745e-001</leafValues></_>
        <_>
          <internalNodes>
            0 -1 48 286525465 -11527984 -720317985 -136359457
            -2013112178 -240119742 -1280771077 -202366456</internalNodes>
          <leafValues>
            -7.2111737728118896e-001 6.5900886058807373e-001</leafValues></_>
        <_>
          <internalNodes>
            0 -1 7 -288365650 1120911554 536953354 546210442 1120604754
            65544 -611386878 -487607302</internalNodes>
          <leafValues>
            -7.2566848993301392e-001 6.6852390766143799e-001</leafValues></_></weakClassifiers></_>
    <!-- stage 2 -->
    <_>
      <maxWeakCount>7</maxWeakCount>
      <stageThreshold>-9.0123134851455688e-001</stageThreshold>
      <weakClassifiers>
        <_>
          <internalNodes>
            0 -1 22 -2049 -538971939 -67414 -75115090 -138412209
            2007574537 -1119896805 2135911211</internalNodes>
          <leafValues>
            -6.9769990444183350e-001 7.4339479207992554e-001</leafValues></_>
        <_>
          <internalNodes>
            0 -1 79 -239012372 -674131758 1074000139 -716054142
            -1011170838 -1702657750 -477954614 -170923058</internalNodes>
          <leafValues>
            -6.2966865301132202e-001 6.6802412271499634e-001</leafValues></_>
        <_>
          <internalNodes>
            0 -1 6 -6364161 -19562276 -754972373 -37240762 -662484181
            -92106527 1093077063 -2363425</internalNodes>
          <leafValues>
            -7.1567511558532715e-001 5.8571010828018188e-001</leafValues></_>
        <_>
          <internalNodes>
            0 -1 54 -82004 -671088644 2147418880 -539013363 -50289
            905412607 -67125333 -252182613</internalNodes>
          <leafValues>
            -6.2212979793548584e-001 6.4153647422790527e-001</leafValues></_>
        <_>
          <internalNodes>
            0 -1 55 293670929 1058087248 -1861996161 353960393 553848864
            -1148712960 134228216 -72398597</internalNodes>
          <leafValues>
            -7.2141999006271362e-001 5.4879486560821533e-001</leafValues></_>
        <_>
          <internalNodes>
            0 -1 15 -152775954 -250134374 16846922 -716865076 1118806250
            -1330249600 1058951275 -674254130</internalNodes>
          <leafValues>
            -6.3089227676391602e-001 5.7076591253280640e-001</leafValues></_>
        <_>
          <internalNodes>
            0 -1 84 -1065041788 -774676275 285311953 -7008163
            -1068314369 -24500086 -1602039297 -1597046582</internalNodes>
          <leafValues>
            -6.5045529603958130e-001 5.9610527753829956e-001</leafValues></_></weakClassifiers></_>
    <!-- stage 3 -->
    <_>
      <maxWeakCount>8</maxWeakCount>
      <stageThreshold>-7.7815204858779907e-001</stageThreshold>
      <weakClassifiers>
        <_>
          <internalNodes>
            0 -1 27 -11554898 -788037458 -717160054 -585127794
            2106227327 1603866754 2140109819 1330621327</internalNodes>
          <leafValues>
            -7.5563567876815796e-001 6.3576614856719971e-001</leafValues></_>
        <_>
          <internalNodes>
            0 -1 64 -2097217 681562351 -1069317630 -1165245534
            2061191791 814663851 -202964992 -221255250</internalNodes>
          <leafValues>
            -6.2865275144577026e-001 5.8869510889053345e-001</leafValues></_>
        <_>
          <internalNodes>
            0 -1 14 285213013 1366306844 353442303 1025053457 541875455
            -1143338871 699046911 -1087694320</internalNodes>
          <leafValues>
            -6.1336851119995117e-001 6.1290174722671509e-001</leafValues></_>
        <_>
          <internalNodes>
            0 -1 86 -2101457 258416769 -804878194 -1081113912
            -1051989390 830570954 -637340886 2007749118</internalNodes>
          <leafValues>
            -6.1692875623703003e-001 5.6920486688613892e-001</leafValues></_>
        <_>
          <internalNodes>
            0 -1 76 -1174553681 501070031 -553541458 -1143488301
            -611864065 1904419053 -133444982 1973679088</internalNodes>
          <leafValues>
            -6.8751698732376099e-001 4.4755536317825317e-001</leafValues></_>
        <_>
          <internalNodes>
            0 -1 16 -590850 1001444306 -754298370 -108337970 -477896457
            1372406951 933747583 1943008141</internalNodes>
          <leafValues>
            -6.9296437501907349e-001 4.4996163249015808e-001</leafValues></_>
        <_>
          <internalNodes>
            0 -1 13 -1361314833 142852750 1359208714 486532334
            -1182139626 -87324534 -83888825 -221517889</internalNodes>
          <leafValues>
            -6.7441684007644653e-001 4.2753040790557861e-001</leafValues></_>
        <_>
          <internalNodes>
            0 -1 72 403181012 1000013905 -1626745351 999363045 -87377479
            -74962406 -1173726529 -1141232900</internalNodes>
          <leafValues>
            -6.7474740743637085e-001 4.5198938250541687e-001</leafValues></_></weakClassifiers></_>
    <!-- stage 4 -->
    <_>
      <maxWeakCount>10</maxWeakCount>
      <stageThreshold>-1.0229010581970215e+000</stageThreshold>
      <weakClassifiers>
        <_>
          <internalNodes>
            0 -1 6 -704907265 -734274834 -111153233 -286069010
            -1444979845 -577115745 2035748678 -1</internalNodes>
          <leafValues>
            -6.4725881814956665e-001 6.2387108802795410e-001</leafValues></_>
        <_>
          <internalNodes>
            0 -1 30 1360033789 -35553802 -1074266113 -690185 -1078920193
            -68091911 2109276159 -297989</internalNodes>
          <leafValues>
            -4.8005816340446472e-001 6.7038190364837646e-001</leafValues></_>
        <_>
          <internalNodes>
            0 -1 50 -134479942 -704664833 -315632326 -134744113
            -219680770 1828445967 -469770418 1946136366</internalNodes>
          <leafValues>
            -6.8316960334777832e-001 4.8547661304473877e-001</leafValues></_>
        <_>
          <internalNodes>
            0 -1 49 431037717 1003855871 898698717 -1075868165
            1070291253 -8224019 -1092986373 -1175471137</internalNodes>
          <leafValues>
            -6.5559095144271851e-001 4.8789140582084656e-001</leafValues></_>
        <_>
          <internalNodes>
            0 -1 3 -301994101 649817359 -1864399870 1759691502
            2044439903 176000447 -389287353 -1</internalNodes>
          <leafValues>
            -6.6184067726135254e-001 4.2135211825370789e-001</leafValues></_>
        <_>
          <internalNodes>
            0 -1 10 14942288 -175046586 -1119727657 -543791241
            -339400195 -77616993 -1444606227 -1410266072</internalNodes>
          <leafValues>
            -6.6936886310577393e-001 4.1670042276382446e-001</leafValues></_>
        <_>
          <internalNodes>
            0 -1 87 -2117717 182437807 -1045000568 -1347810708
            1319070519 2005207227 -11797418 -202379301</internalNodes>
          <leafValues>
            -6.0656887292861938e-001 4.5762783288955688e-001</leafValues></_>
        <_>
          <internalNodes>
            0 -1 68 -674365899 -1478923025 -180248803 -1785359772
            -1825975813 -17078069 -113918720 -1133157644</internalNodes>
          <leafValues>
            -6.3686782121658325e-001 4.3259274959564209e-001</leafValues></_>
        <_>
          <internalNodes>
            0 -1 28 -271057458 2130948108 2131877358 -276053566
            -101718151 1647311404 -1146098945 2002779599</internalNodes>
          <leafValues>
            -7.3071932792663574e-001 3.4470415115356445e-001</leafValues></_>
        <_>
          <internalNodes>
            0 -1 36 1432737783 -144835900 159531999 2147360716 117497855
            2141497492 590316510 1744286514</internalNodes>
          <leafValues>
            -7.8927600383758545e-001 3.0857694149017334e-001</leafValues></_></weakClassifiers></_>
    <!-- stage 5 -->
    <_>
      <maxWeakCount>9</maxWeakCount>
      <stageThreshold>-1.0667113065719604e+000</stageThreshold>
      <weakClassifiers>
        <_>
          <internalNodes>
            0 -1 57 939462455 1040183295 -32769 -1426079745 2013216575
            2147483647 -24577 -6</internalNodes>
          <leafValues>
            -5.3590762615203857e-001 6.6647541522979736e-001</leafValues></_>
        <_>
          <internalNodes>
            0 -1 61 -81 -1342177297 -32786 -1074790418 -4113 2147483639
            -156 -419954697</internalNodes>
          <leafValues>
            -5.7836264371871948e-001 6.1140692234039307e-001</leafValues></_>
        <_>
          <internalNodes>
            0 -1 51 16416767 1901117327 -203538689 -72088844 905607167
            -200258 -301995057 -387694354</internalNodes>
          <leafValues>
            -5.6793737411499023e-001 5.4901587963104248e-001</leafValues></_>
        <_>
          <internalNodes>
            0 -1 52 -3105 1073741423 -1124693992 973771534 -1048813
            -805532386 -1342177510 -228395146</internalNodes>
          <leafValues>
            -6.2622332572937012e-001 4.9742487072944641e-001</leafValues></_>
        <_>
          <internalNodes>
            0 -1 21 -419451089 79659007 -1076416753 -1594986801
            1943746359 1922538415 -557308 -705697801</internalNodes>
          <leafValues>
            -6.6723835468292236e-001 4.2295363545417786e-001</leafValues></_>
        <_>
          <internalNodes>
            0 -1 33 1061421333 -1075865682 -35307521 -2737761
            -1158775297 -5289569 -1410589719 -1078060888</internalNodes>
          <leafValues>
            -6.4593279361724854e-001 4.4876930117607117e-001</leafValues></_>
        <_>
          <internalNodes>
            0 -1 2 -355471361 1245868991 -2044282913 -490146450
            1130517823 1423828987 -721428737 -186384385</internalNodes>
          <leafValues>
            -5.5641072988510132e-001 5.1787275075912476e-001</leafValues></_>
        <_>
          <internalNodes>
            0 -1 83 -301994065 802899711 795477930 -1360126533
            2068804463 2137520603 -361008845 -136315025</internalNodes>
          <leafValues>
            -5.5484646558761597e-001 4.9597001075744629e-001</leafValues></_>
        <_>
          <internalNodes>
            0 -1 66 -707922124 -715548202 -1808207500 -1109023908
            -307265026 -1349664229 1406753280 -1395169324</internalNodes>
          <leafValues>
            -7.2942405939102173e-001 3.5127854347229004e-001</leafValues></_></weakClassifiers></_>
    <!-- stage 6 -->
    <_>
      <maxWeakCount>10</maxWeakCount>
      <stageThreshold>-1.3832911252975464e+000</stageThreshold>
      <weakClassifiers>
        <_>
          <internalNodes>
            0 -1 9 33556496 -619306700 567284215 529944595 234881211
            -1901066088 679480056 704905216</internalNodes>
          <leafValues>
            -7.2934347391128540e-001 6.3061970472335815e-001</leafValues></_>
        <_>
          <internalNodes>
            0 -1 73 -187378690 -711716450 -1794403945 1459794834
            69174971 -68430198 126560443 -219442998</internalNodes>
          <leafValues>
            -5.4091256856918335e-001 5.4078245162963867e-001</leafValues></_>
        <_>
          <internalNodes>
            0 -1 31 -755371810 -594325382 1075202092 -664821553
            -1064756993 814678059 -18735153 1988095759</internalNodes>
          <leafValues>
            -5.7044839859008789e-001 4.7018989920616150e-001</leafValues></_>
        <_>
          <internalNodes>
            0 -1 47 1448891765 -551567081 -1862212395 -719110111
            1478507689 -1968531319 -91448065 1607268377</internalNodes>
          <leafValues>
            -5.7970517873764038e-001 4.6895962953567505e-001</leafValues></_>
        <_>
          <internalNodes>
            0 -1 80 -820135025 -120238892 269521326 -1285842574
            -92153601 998988990 -536258529 2000682746</internalNodes>
          <leafValues>
            -5.5771702527999878e-001 4.0717151761054993e-001</leafValues></_>
        <_>
          <internalNodes>
            0 -1 24 -715399705 2130831519 -620678715 -887930775
            -930102465 635011144 -588604915 -753149631</internalNodes>
          <leafValues>
            -6.7200034856796265e-001 3.3488506078720093e-001</leafValues></_>
        <_>
          <internalNodes>
            0 -1 29 -144113648 -649522775 -1860091525 -1177468641
            -1207361320 -1718414871 -2146953048 2141929867</internalNodes>
          <leafValues>
            -6.3918268680572510e-001 3.6355984210968018e-001</leafValues></_>
        <_>
          <internalNodes>
            0 -1 40 -2113118956 1062240788 -2007759880 997597366
            -624001861 -651540469 -1549554769 -1090803026</internalNodes>
          <leafValues>
            -5.0808340311050415e-001 4.8038667440414429e-001</leafValues></_>
        <_>
          <internalNodes>
            0 -1 90 -1485846261 1059815514 1090699624 -5472246
            -670313229 1870888976 -402404878 -511326911</internalNodes>
          <leafValues>
            -5.1379823684692383e-001 4.4602218270301819e-001</leafValues></_>
        <_>
          <internalNodes>
            0 -1 89 -992209647 -75546821 -1375830019 -46186697
            -1365266689 -17481865 -138498625 -1349577705</internalNodes>
          <leafValues>
            -4.3940693140029907e-001 5.2605444192886353e-001</leafValues></_></weakClassifiers></_>
    <!-- stage 7 -->
    <_>
      <maxWeakCount>12</maxWeakCount>
      <stageThreshold>-1.1682307720184326e+000</stageThreshold>
      <weakClassifiers>
        <_>
          <internalNodes>
            0 -1 17 -150999046 -285249842 -4370 -287339794 -538001553
            -26771465 2001205679 1467473919</internalNodes>
          <leafValues>
            -5.5785679817199707e-001 5.6047761440277100e-001</leafValues></_>
        <_>
          <internalNodes>
            0 -1 67 -673491663 -543997493 -720315115 -1613380323
            -666449505 -1400848215 1162946643 -1361580425</internalNodes>
          <leafValues>
            -5.1945239305496216e-001 4.9278280138969421e-001</leafValues></_>
        <_>
          <internalNodes>
            0 -1 45 -82842115 -944059685 -1911959871 -822029499
            -506527301 1943293335 -326477745 -237511855</internalNodes>
          <leafValues>
            -6.7896538972854614e-001 3.6141327023506165e-001</leafValues></_>
        <_>
          <internalNodes>
            0 -1 32 1434719377 454787277 1124157951 -1681129441
            805311796 -1442084806 -2002764036 -1165416055</internalNodes>
          <leafValues>
            -5.8173274993896484e-001 4.1190367937088013e-001</leafValues></_>
        <_>
          <internalNodes>
            0 -1 58 -681289788 -714833622 926355719 1996791820
            1922337007 -1089781719 -1045982838 -1813010705</internalNodes>
          <leafValues>
            -6.2652593851089478e-001 3.6001902818679810e-001</leafValues></_>
        <_>
          <internalNodes>
            0 -1 43 -741270229 1599754681 -113159413 1431906809
            -645751886 -1866233701 -911754322 1433923583</internalNodes>
          <leafValues>
            -4.9183860421180725e-001 4.6840560436248779e-001</leafValues></_>
        <_>
          <internalNodes>
            0 -1 39 -53032172 -569208619 -858877618 -1576082209
            -105939205 -36019055 -1398702289 749688863</internalNodes>
          <leafValues>
            -6.9192028045654297e-001 3.0406689643859863e-001</leafValues></_>
        <_>
          <internalNodes>
            0 -1 41 1595005343 -542897531 1001631 1949368331 -1976556821
            -1465597472 -1433747368 1425228762</internalNodes>
          <leafValues>
            -5.6889849901199341e-001 3.6902040243148804e-001</leafValues></_>
        <_>
          <internalNodes>
            0 -1 85 234872820 -1073409766 -49015993 -750463414
            1661722868 -242515789 1511661866 1957347326</internalNodes>
          <leafValues>
            -6.3751667737960815e-001 3.4105083346366882e-001</leafValues></_>
        <_>
          <internalNodes>
            0 -1 46 913650992 2136322873 -1795007489 2130768378
            416231336 -88620912 1042887356 -1094841110</internalNodes>
          <leafValues>
            -7.1081829071044922e-001 2.5323322415351868e-001</leafValues></_>
        <_>
          <internalNodes>
            0 -1 4 -999108609 -453595458 -269521165 -387823838
            1693788055 1082122239 -12313 -789712905</internalNodes>
          <leafValues>
            -4.5950129628181458e-001 4.6714136004447937e-001</leafValues></_>
        <_>
          <internalNodes>
            0 -1 75 1069001551 -1204248417 26237422 -1114089970
            -658331393 620347777 -66880564 1637350375</internalNodes>
          <leafValues>
            -6.1737263202667236e-001 3.5630989074707031e-001</leafValues></_></weakClassifiers></_>
    <!-- stage 8 -->
    <_>
      <maxWeakCount>13</maxWeakCount>
      <stageThreshold>-1.3023234605789185e+000</stageThreshold>
      <weakClassifiers>
        <_>
          <internalNodes>
            0 -1 56 -1208631307 -143294603 -1342177345 -285835547
            -131073 -163995 -1342214149 -286299611</internalNodes>
          <leafValues>
            -3.3171322941780090e-001 6.5675443410873413e-001</leafValues></_>
        <_>
          <internalNodes>
            0 -1 63 -65537 989790207 -32835 -1163198662 2138529245
            2147483647 -1092812600 -338173702</internalNodes>
          <leafValues>
            -4.3084499239921570e-001 5.3868031501770020e-001</leafValues></_>
        <_>
          <internalNodes>
            0 -1 88 275782997 -604564493 1574008829 -13682827 -622219265
            -1326405 -1376797697 -1141175831</internalNodes>
          <leafValues>
            -5.0216943025588989e-001 4.3265703320503235e-001</leafValues></_>
        <_>
          <internalNodes>
            0 -1 23 -201404802 -74197302 1426403242 -45627666
            -1682975114 -208695843 1682921422 1716513791</internalNodes>
          <leafValues>
            -7.2731035947799683e-001 2.9205003380775452e-001</leafValues></_>
        <_>
          <internalNodes>
            0 -1 5 -740828673 -116058921 1083462143 -405392472 25782384
            -594738905 1650952429 2147432283</internalNodes>
          <leafValues>
            -5.9195637702941895e-001 3.3825653791427612e-001</leafValues></_>
        <_>
          <internalNodes>
            0 -1 70 1725955527 1827310059 -103719153 -3156530
            -1144309313 2078923195 -7605068 -453246984</internalNodes>
          <leafValues>
            -4.6343976259231567e-001 4.5673042535781860e-001</leafValues></_>
        <_>
          <internalNodes>
            0 -1 0 -1031617550 -217300718 -418949673 -88837936
            -2079457217 -78931789 -1433491009 -1006681857</internalNodes>
          <leafValues>
            -5.3632372617721558e-001 3.7525328993797302e-001</leafValues></_>
        <_>
          <internalNodes>
            0 -1 81 -1076366045 528078333 -977152761 -1076382241
            -1025509341 2076103113 -619009782 2100420159</internalNodes>
          <leafValues>
            -6.3992482423782349e-001 3.1295722723007202e-001</leafValues></_>
        <_>
          <internalNodes>
            0 -1 53 -570433673 387777352 -645885693 11694442 -370561758
            1807303889 -1345347798 -1330446473</internalNodes>
          <leafValues>
            -6.0365927219390869e-001 3.1999507546424866e-001</leafValues></_>
        <_>
          <internalNodes>
            0 -1 60 1662515982 2041531883 -1878190829 -207678934
            732928207 -811368315 86239531 -202113679</internalNodes>
          <leafValues>
            -4.6390205621719360e-001 4.6654823422431946e-001</leafValues></_>
        <_>
          <internalNodes>
            0 -1 19 -938458768 2107769217 -518470787 2132480081
            -1968953164 -811891310 1249983149 -1416757236</internalNodes>
          <leafValues>
            -4.9184447526931763e-001 4.3484666943550110e-001</leafValues></_>
        <_>
          <internalNodes>
            0 -1 62 -1525476011 60702938 -717045411 783892720 1410547803
            -681819722 2056874545 -50998288</internalNodes>
          <leafValues>
            -5.7003515958786011e-001 3.5850715637207031e-001</leafValues></_>
        <_>
          <internalNodes>
            0 -1 77 -1545736785 -1291854369 -642256370 -1980832354
            -1637665209 2145605275 -1147182842 1626602967</internalNodes>
          <leafValues>
            -6.8703621625900269e-001 2.7076432108879089e-001</leafValues></_></weakClassifiers></_>
    <!-- stage 9 -->
    <_>
      <maxWeakCount>14</maxWeakCount>
      <stageThreshold>-7.0672631263732910e-001</stageThreshold>
      <weakClassifiers>
        <_>
          <internalNodes>
            0 -1 11 -269631501 -842072321 -1347432465 -1919963249
            -156560 -16385 -49232 -807436319</internalNodes>
          <leafValues>
            -4.2594718933105469e-001 5.7787263393402100e-001</leafValues></_>
        <_>
          <internalNodes>
            0 -1 82 -203623490 -1219471673 -1759880826 -12916446
            -1078199313 -541382485 -81047570 905426382</internalNodes>
          <leafValues>
            -5.3432834148406982e-001 4.1579726338386536e-001</leafValues></_>
        <_>
          <internalNodes>
            0 -1 44 -172377808 1004384465 -1316760527 -1349804671
            -7882592 2146112577 -372103800 -1347684937</internalNodes>
          <leafValues>
            -4.8880675435066223e-001 4.1701206564903259e-001</leafValues></_>
        <_>
          <internalNodes>
            0 -1 1 -370373890 -639792690 -1858826213 2031359262
            -1998495233 -276805615 1259117051 -145527429</internalNodes>
          <leafValues>
            -5.1952260732650757e-001 3.9068567752838135e-001</leafValues></_>
        <_>
          <internalNodes>
            0 -1 69 1467865118 -1915502507 -245922625 -1126980523
            1229408890 -645084962 -482497482 -378405769</internalNodes>
          <leafValues>
            -5.5916172266006470e-001 3.3403632044792175e-001</leafValues></_>
        <_>
          <internalNodes>
            0 -1 25 -1124174234 1012617366 286115077 -33685181
            1912850167 -1303408496 1587227247 -2064137011</internalNodes>
          <leafValues>
            -6.3187694549560547e-001 2.9061353206634521e-001</leafValues></_>
        <_>
          <internalNodes>
            0 -1 71 1596196096 -1076670177 -2052869635 -1080043507
            -1459941156 -89520086 -788002564 -1983963716</internalNodes>
          <leafValues>
            -5.8961617946624756e-001 2.8679296374320984e-001</leafValues></_>
        <_>
          <internalNodes>
            0 -1 8 -825577746 -544177901 -2126182917 -880295626
            969781605 -1081376767 1258511097 2143043712</internalNodes>
          <leafValues>
            -5.4936385154724121e-001 3.3961525559425354e-001</leafValues></_>
        <_>
          <internalNodes>
            0 -1 74 -509622289 -830750211 -654212990 1439915285
            810265743 2108379275 -651559778 2013262840</internalNodes>
          <leafValues>
            -5.3637558221817017e-001 3.6062282323837280e-001</leafValues></_>
        <_>
          <internalNodes>
            0 -1 26 831790325 -127551145 -1048454183 -35841873
            1217150580 -1630955493 -125671334 -1982852815</internalNodes>
          <leafValues>
            -5.7301568984985352e-001 3.1783711910247803e-001</leafValues></_>
        <_>
          <internalNodes>
            0 -1 42 -545987721 2130711697 1528528989 -544398952
            461374095 -342097776 354797736 133447468</internalNodes>
          <leafValues>
            -7.1068471670150757e-001 2.4340569972991943e-001</leafValues></_>
        <_>
          <internalNodes>
            0 -1 78 492781357 -141857 -786746968 -291636777 1342964223
            1539970215 -334794520 119849739</internalNodes>
          <leafValues>
            -6.4150041341781616e-001 2.8556418418884277e-001</leafValues></_>
        <_>
          <internalNodes>
            0 -1 38 -1073732677 1448428113 84257935 -1513104712
            1267253042 1235993529 -623289873 1971319260</internalNodes>
          <leafValues>
            -5.1363778114318848e-001 3.5178169608116150e-001</leafValues></_>
        <_>
          <internalNodes>
            0 -1 59 -1615727272 -126529388 -660908708 -1613426219
            -936656443 672944136 -2137243602 -1996734788</internalNodes>
          <leafValues>
            -6.1131083965301514e-001 3.0048483610153198e-001</leafValues></_></weakClassifiers></_></stages>
  <features>
    <_>
      <rect>
        0 0 3 2</rect></_>
    <_>
      <rect>
        0 1 7 2</rect></_>
    <_>
      <rect>
        0 2 1 1</rect></_>
    <_>
      <rect>
        0 2 2 3</rect></_>
    <_>
      <rect>
        0 3 1 4</rect></_>
    <_>
      <rect>
        0 3 7 3</rect></_>
    <_>
      <rect>
        0 4 5 3</rect></_>
    <_>
      <rect>
        0 5 1 2</rect></_>
    <_>
      <rect>
        0 10 4 2</rect></_>
    <_>
      <rect>
        1 0 2 1</rect></_>
    <_>
      <rect>
        1 0 3 1</rect></_>
    <_>
      <rect>
        1 1 5 5</rect></_>
    <_>
      <rect>
        1 2 3 4</rect></_>
    <_>
      <rect>
        1 3 2 3</rect></_>
    <_>
      <rect>
        2 0 7 1</rect></_>
    <_>
      <rect>
        2 1 3 3</rect></_>
    <_>
      <rect>
        2 2 3 2</rect></_>
    <_>
      <rect>
        2 2 3 4</rect></_>
    <_>
      <rect>
        2 4 2 4</rect></_>
    <_>
      <rect>
        3 0 3 1</rect></_>
    <_>
      <rect>
        3 0 6 2</rect></_>
    <_>
      <rect>
        3 4 1 2</rect></_>
    <_>
      <rect>
        3 4 7 4</rect></_>
    <_>
      <rect>
        3 5 3 2</rect></_>
    <_>
      <rect>
        3 7 7 2</rect></_>
    <_>
      <rect>
        4 1 2 3</rect></_>
    <_>
      <rect>
        4 1 6 1</rect></_>
    <_>
      <rect>
        4 4 3 4</rect></_>
    <_>
      <rect>
        4 6 3 1</rect></_>
    <_>
      <rect>
        5 0 3 2</rect></_>
    <_>
      <rect>
        5 0 5 2</rect></_>
    <_>
      <rect>
        5 3 2 2</rect></_>
    <_>
      <rect>
        5 13 6 1</rect></_>
    <_>
      <rect>
        6 0 2 1</rect></_>
    <_>
      <rect>
        6 0 3 1</rect></_>
    <_>
      <rect>
        6 1 5 1</rect></_>
    <_>
      <rect>
        6 3 5 2</rect></_>
    <_>
      <rect>
        6 3 5 4</rect></_>
    <_>
      <rect>
        6 4 2 3</rect></_>
    <_>
      <rect>
        6 5 1 2</rect></_>
    <_>
      <rect>
        6 12 1 1</rect></_>
    <_>
      <rect>
        7 1 4 2</rect></_>
    <_>
      <rect>
        7 1 5 3</rect></_>
    <_>
      <rect>
        7 4 2 3</rect></_>
    <_>
      <rect>
        7 6 1 2</rect></_>
    <_>
      <rect>
        7 6 4 2</rect></_>
    <_>
      <rect>
        7 10 1 2</rect></_>
    <_>
      <rect>
        7 10 4 2</rect></_>
    <_>
      <rect>
        8 2 3 1</rect></_>
    <_>
      <rect>
        8 12 5 1</rect></_>
    <_>
      <rect>
        9 2 2 3</rect></_>
    <_>
      <rect>
        9 2 4 1</rect></_>
    <_>
      <rect>
        9 4 1 2</rect></_>
    <_>
      <rect>
        9 5 1 2</rect></_>
    <_>
      <rect>
        9 7 2 2</rect></_>
    <_>
      <rect>
        9 12 5 1</rect></_>
    <_>
      <rect>
        10 1 3 3</rect></_>
    <_>
      <rect>
        10 11 3 1</rect></_>
    <_>
      <rect>
        11 0 2 3</rect></_>
    <_>
      <rect>
        11 1 4 4</rect></_>
    <_>
      <rect>
        11 4 2 1</rect></_>
    <_>
      <rect>
        11 5 2 1</rect></_>
    <_>
      <rect>
        11 5 4 2</rect></_>
    <_>
      <rect>
        11 6 1 3</rect></_>
    <_>
      <rect>
        11 7 1 2</rect></_>
    <_>
      <rect>
        11 13 4 1</rect></_>
    <_>
      <rect>
        12 1 4 4</rect></_>
    <_>
      <rect>
        12 1 4 5</rect></_>
    <_>
      <rect>
        12 2 4 4</rect></_>
    <_>
      <rect>
        12 5 4 3</rect></_>
    <_>
      <rect>
        12 6 1 1</rect></_>
    <_>
      <rect>
        12 13 4 1</rect></_>
    <_>
      <rect>
        13 0 2 1</rect></_>
    <_>
      <rect>
        13 1 2 3</rect></_>
    <_>
      <rect>
        13 6 2 2</rect></_>
    <_>
      <rect>
        14 6 2 1</rect></_>
    <_>
      <rect>
        14 7 2 2</rect></_>
    <_>
      <rect>
        14 8 1 1</rect></_>
    <_>
      <rect>
        14 8 2 2</rect></_>
    <_>
      <rect>
        15 0 2 3</rect></_>
    <_>
      <rect>
        15 5 2 3</rect></_>
    <_>
      <rect>
        15 6 3 3</rect></_>
    <_>
      <rect>
        16 1 2 3</rect></_>
    <_>
      <rect>
        16 9 1 1</rect></_>
    <_>
      <rect>
        17 0 2 2</rect></_>
    <_>
      <rect>
        17 2 2 3</rect></_>
    <_>
      <rect>
        17 5 2 3</rect></_>
    <_>
      <rect>
        17 7 1 2</rect></_>
    <_>
      <rect>
        18 0 1 1</rect></_>
    <_>
      <rect>
        18 0 2 1</rect></_>
    <_>
      <rect>
        18 8 2 2</rect></_></features></cascade>
</opencv_storage>
