svm_type c_svc
kernel_type rbf
gamma 0.00154321
nr_class 2
total_sv 175
rho 5.20795
label 1 -1
probA -4.44935
probB -0.46382
nr_sv 72 103
SV
32 1:0.257999 2:0.146167 3:0.0874038 4:0.0713588 5:0.0587182 6:0.0107 7:0.00106865 8:0.014257 9:0.222977 10:0.281141 11:0.0498847 12:0.00786704 13:0.0179922 14:0.0201504 15:0.0178973 16:0.00876611 17:0.0368775 18:0.281141 19:0.170358 20:0.159442 21:0.171886 22:0.281141 23:0.281141 24:0.118266 25:0.0255603 26:0.0284485 27:0.193744 28:0.281141 29:0.123413 30:0.102007 31:0.265715 32:0.168065 33:0.250259 34:0.16581 35:0.110374 36:0.281141 37:0.278107 38:0.0498284 39:0.00980658 40:0.0193681 41:0.0189061 42:0.0145056 43:0.00689764 44:0.0309317 45:0.278107 46:0.278107 47:0.0313227 48:0.00898448 49:0.0101592 50:0.0181564 51:0.0120737 52:0.0102208 53:0.0328517 54:0.278107 55:0.250404 56:0.112107 57:0.0965853 58:0.256076 59:0.161631 60:0.201863 61:0.131639 62:0.0911279 63:0.278107 64:0.278107 65:0.124491 66:0.104653 67:0.235654 68:0.248518 69:0.172655 70:0.124863 71:0.128996 72:0.278107 73:0.277649 74:0.0243502 75:0.00688318 76:0.00805852 77:0.0129987 78:0.0103511 79:0.00808662 80:0.0279638 81:0.277649 82:0.277649 83:0.102833 84:0.0160661 85:0.0180617 86:0.0274847 87:0.00747587 88:0.0122698 89:0.0231957 90:0.277649 91:0.258862 92:0.100286 93:0.0808242 94:0.188442 95:0.171906 96:0.151007 97:0.111264 98:0.109083 99:0.277649 100:0.277649 101:0.157174 102:0.147705 103:0.276505 104:0.277649 105:0.152637 106:0.093349 107:0.123682 108:0.277649 109:0.151996 110:0.129332 111:0.133193 112:0.258409 113:0.269745 114:0.0843967 115:0.0174325 116:0.0219867 117:0.172652 118:0.250537 119:0.0915087 120:0.0710384 121:0.186016 122:0.119071 123:0.176963 124:0.11548 125:0.0802704 126:0.269745 127:0.0376058 128:0.08538 129:0.147262 130:0.269745 131:0.269745 132:0.165547 133:0.0294313 134:0.0217515 135:0.0334739 136:0.178139 137:0.129253 138:0.129751 139:0.269745 140:0.189662 141:0.207026 142:0.192626 143:0.157663 144:0.170414 145:0.221753 146:0.0869351 147:0.0704343 148:0.186834 149:0.118783 150:0.148386 151:0.0951224 152:0.0691087 153:0.244531 154:0.244531 155:0.0976488 156:0.0772468 157:0.171406 158:0.182327 159:0.12608 160:0.0920048 161:0.0968407 162:0.244531 163:0.150539 164:0.112983 165:0.12409 166:0.244531 167:0.196076 168:0.179108 169:0.159058 170:0.131281 171:0.143115 172:0.227566 173:0.169817 174:0.135008 175:0.207026 176:0.2265 177:0.149157 178:0.154019 179:0.173369 180:0.215757 181:0.230812 182:0.0790413 183:0.0601 184:0.138153 185:0.127102 186:0.11124 187:0.0823636 188:0.0823612 189:0.255373 190:0.255373 191:0.129342 192:0.110094 193:0.203763 194:0.255373 195:0.110391 196:0.0698673 197:0.0922405 198:0.250084 199:0.193065 200:0.140327 201:0.103337 202:0.169687 203:0.159354 204:0.124311 205:0.141241 206:0.15728 207:0.186172 208:0.119531 209:0.145042 210:0.195922 211:0.229338 212:0.255373 213:0.216431 214:0.126902 215:0.136422 216:0.171135 217:0.0375234 218:0.0867908 219:0.147085 220:0.28804 221:0.28804 222:0.160264 223:0.029324 224:0.0198297 225:0.0381795 226:0.154669 227:0.117345 228:0.128601 229:0.284135 230:0.184099 231:0.216163 232:0.193791 233:0.146617 234:0.168303 235:0.107392 236:0.0976353 237:0.0900418 238:0.218613 239:0.28804 240:0.168148 241:0.0228921 242:0.0192089 243:0.0468804 244:0.28804 245:0.28804 246:0.113205 247:0.126581 248:0.111583 249:0.0682176 250:0.0811647 251:0.100294 252:0.222345 253:0.128046 254:0.101059 255:0.12009 256:0.266363 257:0.184573 258:0.181489 259:0.155856 260:0.118935 261:0.138912 262:0.187971 263:0.150425 264:0.128397 265:0.214304 266:0.228911 267:0.150935 268:0.149387 269:0.160702 270:0.198684 271:0.266363 272:0.266363 273:0.0997824 274:0.121053 275:0.121327 276:0.0647886 277:0.0660234 278:0.082065 279:0.180343 280:0.266363 281:0.266363 282:0.088558 283:0.056767 284:0.0522909 285:0.0454857 286:0.0983301 287:0.100096 288:0.266363 289:0.163583 290:0.126686 291:0.101062 292:0.17968 293:0.164916 294:0.130476 295:0.140868 296:0.149117 297:0.176614 298:0.108895 299:0.136212 300:0.188904 301:0.241019 302:0.266875 303:0.212327 304:0.120298 305:0.12819 306:0.155239 307:0.266875 308:0.266875 309:0.0741878 310:0.04657 311:0.0376998 312:0.0359435 313:0.0856171 314:0.0933598 315:0.262752 316:0.266875 317:0.154593 318:0.115221 319:0.159734 320:0.173874 321:0.0874236 322:0.103401 323:0.0861346 324:0.266875 325:0.0854395 326:0.0847613 327:0.0831731 328:0.197522 329:0.302162 330:0.151082 331:0.017779 332:0.0162286 333:0.0367777 334:0.302162 335:0.294044 336:0.0990996 337:0.122315 338:0.102351 339:0.0651089 340:0.078591 341:0.0965935 342:0.181326 343:0.173391 344:0.085882 345:0.0679635 346:0.233556 347:0.302162 348:0.163834 349:0.0758513 350:0.0417131 351:0.10469 352:0.302162 353:0.302162 354:0.113515 355:0.102835 356:0.0846021 357:0.105652 358:0.0656367 359:0.0407086 360:0.302162 361:0.277367 362:0.233542 363:0.0841203 364:0.111798 365:0.105916 366:0.0585822 367:0.0609404 368:0.0753685 369:0.140528 370:0.300651 371:0.272901 372:0.0770035 373:0.0547285 374:0.0497935 375:0.0424305 376:0.087763 377:0.0932555 378:0.234075 379:0.300651 380:0.250723 381:0.0936079 382:0.0923858 383:0.0900017 384:0.0926685 385:0.0571512 386:0.0367509 387:0.300651 388:0.300651 389:0.271808 390:0.0762992 391:0.0568664 392:0.0317147 393:0.059293 394:0.0430396 395:0.0236217 396:0.300651 397:0.288193 398:0.268945 399:0.0692894 400:0.0489296 401:0.0389636 402:0.0362298 403:0.0837807 404:0.0944959 405:0.217919 406:0.263126 407:0.137015 408:0.105636 409:0.141454 410:0.16876 411:0.0915514 412:0.0955188 413:0.0860361 414:0.248523 415:0.288193 416:0.265157 417:0.0708025 418:0.0479471 419:0.0271175 420:0.0587521 421:0.0382708 422:0.0213254 423:0.288193 424:0.288193 425:0.174147 426:0.142614 427:0.21253 428:0.126508 429:0.0332669 430:0.0595982 431:0.0386862 432:0.288193 433:0.138142 434:0.0752178 435:0.0563516 436:0.182387 437:0.293944 438:0.132603 439:0.0499239 440:0.0275289 441:0.0783687 442:0.293944 443:0.273932 444:0.095029 445:0.0821862 446:0.0678125 447:0.0798497 448:0.0443043 449:0.0308369 450:0.293944 451:0.101963 452:0.0362074 453:0.0436426 454:0.293883 455:0.293944 456:0.175581 457:0.136603 458:0.0585593 459:0.0598345 460:0.293944 461:0.13417 462:0.0655394 463:0.13841 464:0.163236 465:0.193035 466:0.147592 467:0.0464036 468:0.293944 469:0.293453 470:0.236863 471:0.0842156 472:0.0789582 473:0.0775265 474:0.0754788 475:0.0406794 476:0.029329 477:0.293453 478:0.293453 479:0.252564 480:0.0665712 481:0.0503268 482:0.028011 483:0.0497422 484:0.0410111 485:0.0239899 486:0.293453 487:0.293453 488:0.115814 489:0.0573853 490:0.139994 491:0.17673 492:0.183887 493:0.142041 494:0.0454429 495:0.268829 496:0.293453 497:0.14953 498:0.0611972 499:0.0424149 500:0.0423574 501:0.0828531 502:0.038852 503:0.0202645 504:0.293453 505:0.30012 506:0.279145 507:0.0697986 508:0.0476437 509:0.026325 510:0.0551839 511:0.040462 512:0.0247284 513:0.30012 514:0.30012 515:0.164872 516:0.13249 517:0.214569 518:0.133538 519:0.0333111 520:0.0641118 521:0.0410453 522:0.30012 523:0.30012 524:0.156511 525:0.0641894 526:0.0449914 527:0.0517622 528:0.0979106 529:0.0463204 530:0.0196973 531:0.30012 532:0.30012 533:0.188652 534:0.124565 535:0.0803117 536:0.0508178 537:0.0503349 538:0.0524151 539:0.0442495 540:0.217065 541:0.10064 542:0.0367573 543:0.0393429 544:0.260768 545:0.292761 546:0.150513 547:0.116985 548:0.0520206 549:0.0598973 550:0.292761 551:0.126569 552:0.0634018 553:0.121414 554:0.137609 555:0.165782 556:0.123101 557:0.0409938 558:0.292761 559:0.0831112 560:0.04108 561:0.0372653 562:0.263776 563:0.292761 564:0.260323 565:0.130651 566:0.0583714 567:0.0351522 568:0.266765 569:0.182486 570:0.097524 571:0.170089 572:0.286178 573:0.137076 574:0.108574 575:0.031758 576:0.0843227 577:0.286571 578:0.130723 579:0.0657322 580:0.145434 581:0.177959 582:0.186854 583:0.140625 584:0.0479226 585:0.286571 586:0.286571 587:0.158804 588:0.0686791 589:0.0465474 590:0.0439486 591:0.0878385 592:0.0410229 593:0.0215164 594:0.286571 595:0.268999 596:0.182312 597:0.100164 598:0.204169 599:0.286571 600:0.164151 601:0.123777 602:0.0353106 603:0.0857369 604:0.286571 605:0.274095 606:0.135142 607:0.0493859 608:0.0804265 609:0.0612995 610:0.0492422 611:0.036294 612:0.106349 613:0.306779 614:0.181132 615:0.0785697 616:0.0529679 617:0.0573602 618:0.112021 619:0.0520948 620:0.022533 621:0.306779 622:0.306779 623:0.213732 624:0.148463 625:0.107194 626:0.069862 627:0.057027 628:0.0644465 629:0.0534378 630:0.274924 631:0.306779 632:0.306779 633:0.15366 634:0.0606848 635:0.108692 636:0.0769015 637:0.0611938 638:0.0381469 639:0.126355 640:0.306779 641:0.268084 642:0.134279 643:0.0360228 644:0.0690627 645:0.102494 646:0.0781416 647:0.0425003 648:0.14455 
32 1:0.284105 2:0.145759 3:0.108712 4:0.0853901 5:0.0477274 6:0.0120602 7:0.0108 8:0.0114868 9:0.163702 10:0.284105 11:0.0540739 12:0.0334372 13:0.0171877 14:0.0210949 15:0.0225015 16:0.0158961 17:0.016782 18:0.284105 19:0.175146 20:0.0929687 21:0.219098 22:0.284105 23:0.284105 24:0.0806159 25:0.0249915 26:0.00867343 27:0.117648 28:0.278721 29:0.0535886 30:0.257492 31:0.235078 32:0.183513 33:0.247205 34:0.161536 35:0.0765218 36:0.284105 37:0.296805 38:0.0536201 39:0.0329182 40:0.0182559 41:0.0203051 42:0.0203619 43:0.0130624 44:0.0139487 45:0.296805 46:0.296805 47:0.0100762 48:0.0174208 49:0.0077512 50:0.0196537 51:0.00837008 52:0.018642 53:0.0311452 54:0.296805 55:0.244761 56:0.0470573 57:0.237506 58:0.231592 59:0.171494 60:0.201055 61:0.125412 62:0.0608949 63:0.296805 64:0.201694 65:0.0832574 66:0.157606 67:0.109343 68:0.209927 69:0.158584 70:0.18102 71:0.113678 72:0.296805 73:0.305021 74:0.00925161 75:0.0186687 76:0.00731536 77:0.0195608 78:0.0103996 79:0.0180719 80:0.0301302 81:0.305021 82:0.305021 83:0.046648 84:0.0337724 85:0.0273344 86:0.0291164 87:0.0227554 88:0.0519465 89:0.0734806 90:0.305021 91:0.215172 92:0.0793103 93:0.165358 94:0.113552 95:0.212137 96:0.183775 97:0.192641 98:0.118312 99:0.305021 100:0.169717 101:0.101129 102:0.136304 103:0.164285 104:0.249332 105:0.110718 106:0.189821 107:0.117111 108:0.29076 109:0.151066 110:0.078788 111:0.164412 112:0.233853 113:0.263612 114:0.0558615 115:0.0190244 116:0.00662743 117:0.100223 118:0.232555 119:0.0413952 120:0.179555 121:0.161003 122:0.121387 123:0.168823 124:0.111798 125:0.0548491 126:0.263612 127:0.0389305 128:0.0260223 129:0.135969 130:0.26035 131:0.263612 132:0.150569 133:0.0220614 134:0.0223261 135:0.0457405 136:0.142552 137:0.0517077 138:0.215015 139:0.255726 140:0.226225 141:0.248364 142:0.207559 143:0.132692 144:0.263612 145:0.21532 146:0.0388936 147:0.174455 148:0.167067 149:0.119165 150:0.14453 151:0.0912589 152:0.0459716 153:0.252366 154:0.172501 155:0.0609172 156:0.116125 157:0.0786665 158:0.149679 159:0.112863 160:0.132052 161:0.0862177 162:0.252366 163:0.121754 164:0.0401401 165:0.205423 166:0.252366 167:0.238639 168:0.221892 169:0.172218 170:0.114297 171:0.252366 172:0.188055 173:0.143962 174:0.153664 175:0.0926849 176:0.134163 177:0.154625 178:0.232016 179:0.150181 180:0.252366 181:0.195687 182:0.061384 183:0.129251 184:0.0865545 185:0.160167 186:0.139251 187:0.148779 188:0.0948874 189:0.267463 190:0.161465 191:0.0854242 192:0.109327 193:0.129571 194:0.191488 195:0.0825343 196:0.149509 197:0.0996667 198:0.267463 199:0.207195 200:0.14733 201:0.167704 202:0.107094 203:0.149664 204:0.184884 205:0.262399 206:0.174836 207:0.267463 208:0.0893477 209:0.112117 210:0.145508 211:0.139244 212:0.21043 213:0.198638 214:0.267463 215:0.110111 216:0.116857 217:0.0420999 218:0.0269537 219:0.14419 220:0.257723 221:0.27583 222:0.138416 223:0.0202714 224:0.0197614 225:0.046697 226:0.133426 227:0.0444084 228:0.223036 229:0.253419 230:0.211788 231:0.248063 232:0.202617 233:0.12274 234:0.27583 235:0.0500481 236:0.0774341 237:0.0792996 238:0.133913 239:0.27583 240:0.214835 241:0.0196499 242:0.0473857 243:0.0390767 244:0.25436 245:0.245538 246:0.106305 247:0.111732 248:0.141534 249:0.122317 250:0.0745835 251:0.111584 252:0.27583 253:0.114396 254:0.0343334 255:0.213706 256:0.244218 257:0.22116 258:0.218942 259:0.167367 260:0.105338 261:0.244218 262:0.171859 263:0.133611 264:0.154864 265:0.0969292 266:0.142653 267:0.1591 268:0.22648 269:0.139671 270:0.244218 271:0.220277 272:0.216213 273:0.102118 274:0.110816 275:0.160954 276:0.125309 277:0.064867 278:0.103454 279:0.244218 280:0.244218 281:0.206576 282:0.0721042 283:0.0358235 284:0.0338965 285:0.0498489 286:0.0964185 287:0.100005 288:0.244218 289:0.188242 290:0.135137 291:0.168459 292:0.110793 293:0.157077 294:0.190144 295:0.255922 296:0.161786 297:0.262139 298:0.0855954 299:0.106215 300:0.13745 301:0.138463 302:0.215577 303:0.184216 304:0.262139 305:0.104776 306:0.108913 307:0.262139 308:0.239965 309:0.0779677 310:0.0402393 311:0.0347834 312:0.054304 313:0.100469 314:0.115434 315:0.262139 316:0.107747 317:0.10268 318:0.17654 319:0.127549 320:0.193893 321:0.149628 322:0.262139 323:0.0845852 324:0.13207 325:0.0470554 326:0.0699819 327:0.0823489 328:0.135977 329:0.296652 330:0.214334 331:0.0187694 332:0.0411686 333:0.0411159 334:0.233404 335:0.215912 336:0.111471 337:0.117944 338:0.144985 339:0.131566 340:0.0836586 341:0.110855 342:0.296652 343:0.0902048 344:0.10947 345:0.0982193 346:0.202816 347:0.296652 348:0.220765 349:0.0314397 350:0.103361 351:0.0477094 352:0.296652 353:0.296652 354:0.107436 355:0.0835857 356:0.122758 357:0.133913 358:0.037471 359:0.12405 360:0.296652 361:0.207691 362:0.195049 363:0.109882 364:0.120575 365:0.16893 366:0.136948 367:0.0742368 368:0.104496 369:0.270932 370:0.244717 371:0.199856 372:0.0774174 373:0.039147 374:0.0348665 375:0.0579128 376:0.110037 377:0.107634 378:0.283797 379:0.283797 380:0.283797 381:0.113092 382:0.0884841 383:0.146356 384:0.143255 385:0.0376888 386:0.128242 387:0.261399 388:0.283797 389:0.232111 390:0.0434205 391:0.0321986 392:0.0314043 393:0.0510178 394:0.0419771 395:0.0549335 396:0.283797 397:0.256804 398:0.21462 399:0.0787431 400:0.0414131 401:0.0342993 402:0.0598621 403:0.108298 404:0.116009 405:0.28393 406:0.0957515 407:0.0957012 408:0.152706 409:0.116487 410:0.175591 411:0.151819 412:0.28393 413:0.0862598 414:0.119652 415:0.28393 416:0.259889 417:0.0419834 418:0.0290181 419:0.0263033 420:0.0492824 421:0.0381713 422:0.059547 423:0.28393 424:0.244213 425:0.122338 426:0.229091 427:0.152376 428:0.255754 429:0.14972 430:0.0834434 431:0.111855 432:0.241025 433:0.067834 434:0.0908042 435:0.0810093 436:0.143152 437:0.292685 438:0.173066 439:0.0205352 440:0.0703947 441:0.0348212 442:0.292685 443:0.270884 444:0.0879772 445:0.0617159 446:0.0907369 447:0.0974979 448:0.0250408 449:0.0862703 450:0.225264 451:0.0621538 452:0.0189613 453:0.0397839 454:0.268129 455:0.292685 456:0.290414 457:0.0758979 458:0.0907458 459:0.0591984 460:0.292685 461:0.0881102 462:0.0565042 463:0.120446 464:0.182036 465:0.253201 466:0.100784 467:0.135728 468:0.292685 469:0.293594 470:0.246682 471:0.0915135 472:0.0641876 473:0.107399 474:0.103561 475:0.0247575 476:0.0880753 477:0.191318 478:0.293594 479:0.182416 480:0.0333961 481:0.0249386 482:0.0244555 483:0.0367925 484:0.0329156 485:0.0423827 486:0.293594 487:0.293594 488:0.0753406 489:0.058071 490:0.128421 491:0.207719 492:0.267061 493:0.10026 494:0.133256 495:0.293594 496:0.293594 497:0.160632 498:0.0591102 499:0.0364977 500:0.0259776 501:0.0893033 502:0.0588916 503:0.0519198 504:0.293594 505:0.300091 506:0.213411 507:0.034468 508:0.0233898 509:0.020669 510:0.0366749 511:0.0306859 512:0.0472059 513:0.300091 514:0.177062 515:0.0886373 516:0.169355 517:0.122402 518:0.208879 519:0.114915 520:0.0756675 521:0.0883008 522:0.180287 523:0.300091 524:0.167049 525:0.0562405 526:0.0333721 527:0.0313043 528:0.0973799 529:0.0608213 530:0.059313 531:0.300091 532:0.291851 533:0.201101 534:0.259517 535:0.166329 536:0.181655 537:0.15818 538:0.0688796 539:0.123415 540:0.224361 541:0.0577036 542:0.0208623 543:0.039243 544:0.233775 545:0.285084 546:0.233042 547:0.0589106 548:0.0781654 549:0.0517383 550:0.285084 551:0.086822 552:0.0533959 553:0.103463 554:0.152493 555:0.205535 556:0.0804556 557:0.112496 558:0.285084 559:0.035647 560:0.0028916 561:0.00629596 562:0.119509 563:0.285084 564:0.285084 565:0.154149 566:0.106222 567:0.0868158 568:0.22872 569:0.057615 570:0.0282339 571:0.0680793 572:0.191997 573:0.26193 574:0.119378 575:0.19571 576:0.285084 577:0.275905 578:0.0757605 579:0.0554763 580:0.110936 581:0.175152 582:0.217147 583:0.080216 584:0.111782 585:0.275905 586:0.275905 587:0.133862 588:0.0474939 589:0.0302792 590:0.0231427 591:0.0763837 592:0.0506002 593:0.04322 594:0.275905 595:0.197366 596:0.0416214 597:0.0241329 598:0.0715599 599:0.214199 600:0.275905 601:0.122558 602:0.177945 603:0.275905 604:0.275905 605:0.275905 606:0.118554 607:0.0371654 608:0.033559 609:0.0508284 610:0.0348833 611:0.100317 612:0.262862 613:0.281423 614:0.136464 615:0.0441607 616:0.0269901 617:0.0260123 618:0.0794889 619:0.0499902 620:0.0473486 621:0.281423 622:0.239975 623:0.151378 624:0.206249 625:0.132432 626:0.160963 627:0.137909 628:0.0602287 629:0.109883 630:0.196722 631:0.281423 632:0.275153 633:0.10937 634:0.0290304 635:0.0412323 636:0.0623568 637:0.0385649 638:0.117271 639:0.281423 640:0.281423 641:0.281423 642:0.26282 643:0.187732 644:0.114853 645:0.0538654 646:0.0287103 647:0.0369049 648:0.130809 
32 1:0.303948 2:0.100995 3:0.0725598 4:0.0664218 5:0.0471464 6:0.00446916 7:9.75749e-005 8:0.0108303 9:0.303948 10:0.303948 11:0.0225888 12:0.00524014 13:0.0150714 14:0.0102227 15:0.00712394 16:0.0032439 17:0.0180539 18:0.303948 19:0.18729 20:0.152096 21:0.0949365 22:0.239877 23:0.303948 24:0.168967 25:0.0305525 26:0.0176378 27:0.220153 28:0.248022 29:0.0972052 30:0.0508988 31:0.213759 32:0.212044 33:0.193454 34:0.0755294 35:0.0937922 36:0.303948 37:0.31164 38:0.0250515 39:0.00544231 40:0.0134008 41:0.00959174 42:0.00560218 43:0.00255046 44:0.0151316 45:0.31164 46:0.31164 47:0.0157137 48:0.0055069 49:0.0140173 50:0.0087103 51:0.0129441 52:0.00756137 53:0.0229609 54:0.31164 55:0.213672 56:0.0939208 57:0.0468242 58:0.188373 59:0.185577 60:0.1648 61:0.0631356 62:0.0765518 63:0.31164 64:0.286166 65:0.0901738 66:0.0861663 67:0.16605 68:0.193441 69:0.251571 70:0.111945 71:0.0990674 72:0.31164 73:0.293927 74:0.0124972 75:0.00407657 76:0.0114022 77:0.00685032 78:0.0106973 79:0.00650615 80:0.0187031 81:0.293927 82:0.293927 83:0.0671664 84:0.0153857 85:0.0175717 86:0.0145623 87:0.00790879 88:0.0102628 89:0.0535247 90:0.293927 91:0.240262 92:0.0725388 93:0.0649699 94:0.141023 95:0.159136 96:0.207057 97:0.094415 98:0.0849198 99:0.293927 100:0.260809 101:0.158047 102:0.185949 103:0.222436 104:0.230354 105:0.203916 106:0.0996331 107:0.128458 108:0.293927 109:0.174447 110:0.127808 111:0.0827361 112:0.192594 113:0.259348 114:0.124587 115:0.0224621 116:0.0132757 117:0.203692 118:0.222376 119:0.0743434 120:0.038797 121:0.160975 122:0.155975 123:0.144415 124:0.0560665 125:0.0713541 126:0.259348 127:0.0654139 128:0.22946 129:0.0747537 130:0.185653 131:0.259348 132:0.259348 133:0.0927498 134:0.0690877 135:0.0825566 136:0.152561 137:0.188187 138:0.0756115 139:0.20208 140:0.217312 141:0.189544 142:0.164519 143:0.210358 144:0.259348 145:0.200378 146:0.0758056 147:0.0374732 148:0.148178 149:0.142229 150:0.128339 151:0.0488217 152:0.0608243 153:0.254805 154:0.254805 155:0.0712759 156:0.0684013 157:0.132288 158:0.151135 159:0.196949 160:0.0878395 161:0.0818728 162:0.254805 163:0.137096 164:0.181846 165:0.0713547 166:0.189523 167:0.200989 168:0.173701 169:0.14428 170:0.181777 171:0.254805 172:0.195732 173:0.155802 174:0.115071 175:0.160448 176:0.187537 177:0.226648 178:0.172578 179:0.149265 180:0.254805 181:0.220496 182:0.0564172 183:0.0509357 184:0.110712 185:0.122645 186:0.1601 187:0.0731407 188:0.0689954 189:0.239942 190:0.239942 191:0.132326 192:0.146651 193:0.173857 194:0.179434 195:0.155634 196:0.0773805 197:0.107374 198:0.239942 199:0.167432 200:0.127464 201:0.0891536 202:0.133919 203:0.151579 204:0.184741 205:0.143679 206:0.131991 207:0.239942 208:0.144702 209:0.150841 210:0.197729 211:0.234373 212:0.239942 213:0.209763 214:0.199449 215:0.14583 216:0.202548 217:0.0603417 218:0.198002 219:0.0678336 220:0.169528 221:0.250293 222:0.250244 223:0.0786605 224:0.0520799 225:0.0738428 226:0.13537 227:0.158165 228:0.066811 229:0.193466 230:0.205991 231:0.184809 232:0.143757 233:0.174087 234:0.250293 235:0.19358 236:0.218447 237:0.0646025 238:0.112979 239:0.250293 240:0.186044 241:0.103659 242:0.11476 243:0.140078 244:0.250293 245:0.250293 246:0.0932928 247:0.0540325 248:0.0919764 249:0.0579461 250:0.137195 251:0.181992 252:0.250293 253:0.127848 254:0.161419 255:0.066397 256:0.190146 257:0.199043 258:0.177658 259:0.132535 260:0.157712 261:0.242454 262:0.180602 263:0.139122 264:0.1123 265:0.161608 266:0.192521 267:0.235628 268:0.162904 269:0.1332 270:0.242454 271:0.242454 272:0.242454 273:0.0879395 274:0.0556591 275:0.0960347 276:0.0614748 277:0.126794 278:0.169142 279:0.242454 280:0.21581 281:0.199754 282:0.0806925 283:0.0567099 284:0.0604015 285:0.0545892 286:0.141747 287:0.171111 288:0.242454 289:0.164016 290:0.120604 291:0.0918357 292:0.143542 293:0.165596 294:0.203651 295:0.143888 296:0.124787 297:0.237237 298:0.141821 299:0.142758 300:0.21076 301:0.237237 302:0.237237 303:0.226082 304:0.195512 305:0.141684 306:0.198642 307:0.200593 308:0.184431 309:0.0741257 310:0.0462368 311:0.0500408 312:0.0469534 313:0.124082 314:0.153663 315:0.237237 316:0.165274 317:0.189009 318:0.113714 319:0.121475 320:0.117102 321:0.0772813 322:0.225312 323:0.187012 324:0.203249 325:0.15167 326:0.18686 327:0.0559472 328:0.0959834 329:0.284262 330:0.168869 331:0.090607 332:0.0946078 333:0.100683 334:0.228808 335:0.215623 336:0.0768884 337:0.052181 338:0.0845879 339:0.0555138 340:0.123363 341:0.165542 342:0.238075 343:0.284262 344:0.156108 345:0.0707025 346:0.135903 347:0.284262 348:0.109917 349:0.0762809 350:0.0857917 351:0.284262 352:0.284262 353:0.243857 354:0.120112 355:0.0608234 356:0.0770094 357:0.0403797 358:0.0565082 359:0.0882511 360:0.284262 361:0.24833 362:0.22817 363:0.0798769 364:0.058452 365:0.0958842 366:0.0641018 367:0.124827 368:0.168357 369:0.243188 370:0.19346 371:0.1782 372:0.0758496 373:0.0580376 374:0.0619223 375:0.0585731 376:0.138194 377:0.159622 378:0.26707 379:0.295761 380:0.250945 381:0.123396 382:0.0688798 383:0.0940704 384:0.0478404 385:0.0618024 386:0.0886133 387:0.295761 388:0.295761 389:0.238897 390:0.0882565 391:0.0304435 392:0.0496535 393:0.038492 394:0.0686277 395:0.159941 396:0.295761 397:0.195664 398:0.179397 399:0.0758426 400:0.0524084 401:0.0566986 402:0.0552276 403:0.132979 404:0.158668 405:0.259282 406:0.169903 407:0.18315 408:0.113326 409:0.133821 410:0.128426 411:0.0878517 412:0.235892 413:0.188926 414:0.205879 415:0.259282 416:0.243856 417:0.0901694 418:0.0288488 419:0.039908 420:0.0346484 421:0.0604524 422:0.146417 423:0.259282 424:0.199226 425:0.186252 426:0.202012 427:0.0812363 428:0.204183 429:0.0922513 430:0.213693 431:0.230006 432:0.222865 433:0.264291 434:0.121459 435:0.0495873 436:0.0943845 437:0.29031 438:0.0815671 439:0.0546858 440:0.0622862 441:0.218552 442:0.296595 443:0.188506 444:0.0897621 445:0.0427663 446:0.0564958 447:0.0275049 448:0.0410902 449:0.0623671 450:0.296595 451:0.175195 452:0.0839735 453:0.0789574 454:0.136963 455:0.296595 456:0.177895 457:0.130566 458:0.103774 459:0.235187 460:0.296595 461:0.149126 462:0.0646164 463:0.0446108 464:0.0781745 465:0.104216 466:0.0848252 467:0.174997 468:0.296595 469:0.321705 470:0.179994 471:0.084775 472:0.0445888 473:0.0636958 474:0.0299853 475:0.0408235 476:0.0577788 477:0.321705 478:0.296087 479:0.161517 480:0.0617242 481:0.0218716 482:0.0342448 483:0.028139 484:0.0517439 485:0.109028 486:0.229566 487:0.321705 488:0.138907 489:0.0688661 490:0.0509687 491:0.0909154 492:0.116585 493:0.0923434 494:0.168996 495:0.321705 496:0.321705 497:0.177682 498:0.0315087 499:0.00812109 500:0.0168224 501:0.0100484 502:0.0407659 503:0.129455 504:0.321705 505:0.316646 506:0.185026 507:0.0710916 508:0.0226753 509:0.0311008 510:0.0284312 511:0.0510394 512:0.111154 513:0.266106 514:0.148385 515:0.143503 516:0.144762 517:0.0657742 518:0.15096 519:0.0702914 520:0.167107 521:0.177399 522:0.168531 523:0.316646 524:0.194024 525:0.0332879 526:0.0108134 527:0.0136833 528:0.00887054 529:0.040716 530:0.147852 531:0.316646 532:0.316646 533:0.21155 534:0.17136 535:0.0488144 536:0.109708 537:0.0612974 538:0.19435 539:0.176795 540:0.247042 541:0.17357 542:0.0840419 543:0.0738876 544:0.126245 545:0.301557 546:0.148449 547:0.111489 548:0.089841 549:0.230826 550:0.301557 551:0.141858 552:0.062857 553:0.0406862 554:0.0665634 555:0.0869685 556:0.0709544 557:0.150208 558:0.301557 559:0.123203 560:0.0357338 561:0.0257552 562:0.0994958 563:0.301557 564:0.272476 565:0.129852 566:0.09749 567:0.164647 568:0.301557 569:0.104419 570:0.0263945 571:0.0734647 572:0.124226 573:0.107891 574:0.0845758 575:0.16025 576:0.301557 577:0.314084 578:0.123594 579:0.0615858 580:0.0430295 581:0.0724407 582:0.0901998 583:0.071762 584:0.134138 585:0.314084 586:0.314084 587:0.151136 588:0.0292023 589:0.00690144 590:0.0155221 591:0.00948399 592:0.0348957 593:0.110045 594:0.314084 595:0.314084 596:0.0894287 597:0.0233241 598:0.073456 599:0.12711 600:0.113077 601:0.0812852 602:0.142984 603:0.314084 604:0.314084 605:0.145754 606:0.0788604 607:0.03077 608:0.0325375 609:0.00698502 610:0.0378555 611:0.10928 612:0.314084 613:0.315839 614:0.158625 615:0.0297668 616:0.00857161 617:0.0117341 618:0.00822763 619:0.0327318 620:0.118991 621:0.315839 622:0.315839 623:0.164388 624:0.143827 625:0.0393695 626:0.100818 627:0.0524438 628:0.162715 629:0.149033 630:0.201996 631:0.315839 632:0.146509 633:0.0737256 634:0.0334747 635:0.0346532 636:0.00465539 637:0.0435516 638:0.12621 639:0.315839 640:0.315839 641:0.253302 642:0.16276 643:0.0521528 644:0.0393315 645:0.0542148 646:0.0734151 647:0.0889018 648:0.216506 
32 1:0.29584 2:0.0529828 3:0.0581623 4:0.0918045 5:0.0767364 6:0.00369873 7:0.0250445 8:0.0230358 9:0.29584 10:0.29584 11:0.0522583 12:0.0363882 13:0.0485239 14:0.0166719 15:0.000180169 16:0.0250904 17:0.0534993 18:0.29584 19:0.202768 20:0.0953524 21:0.109372 22:0.219099 23:0.238614 24:0.0746798 25:0.161282 26:0.131321 27:0.29584 28:0.29584 29:0.162698 30:0.113544 31:0.183935 32:0.0522857 33:0.00966348 34:0.140471 35:0.20209 36:0.29584 37:0.310712 38:0.0457584 39:0.0322105 40:0.0442807 41:0.0155966 42:0.000150535 43:0.0225713 44:0.0426457 45:0.310712 46:0.310712 47:0.042736 48:0.0231115 49:0.0245436 50:0.0129075 51:0.00919392 52:0.0235136 53:0.074626 54:0.310712 55:0.310712 56:0.13678 57:0.0990626 58:0.165535 59:0.0512821 60:0.010389 61:0.126067 62:0.170415 63:0.310712 64:0.310712 65:0.194761 66:0.13717 67:0.0810382 68:0.0503036 69:0.0661825 70:0.0731426 71:0.168498 72:0.310712 73:0.301385 74:0.0368808 75:0.020753 76:0.0206801 77:0.00985469 78:0.0070591 79:0.0172528 80:0.0662554 81:0.301385 82:0.301385 83:0.064143 84:0.00973854 85:0.0710017 86:0.0580734 87:0.0276194 88:0.114569 89:0.107814 90:0.301385 91:0.301385 92:0.172746 93:0.119386 94:0.0717106 95:0.0384226 96:0.0519757 97:0.0630348 98:0.158128 99:0.301385 100:0.301385 101:0.175168 102:0.0993493 103:0.0818121 104:0.171054 105:0.136232 106:0.179812 107:0.123878 108:0.301385 109:0.178185 110:0.0780827 111:0.0937959 112:0.186011 113:0.199247 114:0.0562661 115:0.128461 116:0.0990343 117:0.260899 118:0.260899 119:0.132727 120:0.0956873 121:0.15199 122:0.0422956 123:0.00725905 124:0.112579 125:0.159916 126:0.260899 127:0.182785 128:0.116958 129:0.0959682 130:0.104604 131:0.15226 132:0.135697 133:0.211926 134:0.260899 135:0.260899 136:0.260899 137:0.188058 138:0.058432 139:0.0680557 140:0.0254745 141:0.0272211 142:0.117945 143:0.260899 144:0.260899 145:0.272715 146:0.117326 147:0.0876096 148:0.143351 149:0.0434149 150:0.00821547 151:0.105899 152:0.140168 153:0.272715 154:0.272715 155:0.159072 156:0.110633 157:0.0714696 158:0.041981 159:0.0538811 160:0.0623303 161:0.150148 162:0.272715 163:0.252656 164:0.160602 165:0.052567 166:0.0640709 167:0.0265906 168:0.0300532 169:0.117043 170:0.268878 171:0.272715 172:0.272715 173:0.272715 174:0.201658 175:0.0332332 176:0.0317728 177:0.040537 178:0.058629 179:0.147559 180:0.272715 181:0.254929 182:0.133228 183:0.0916173 184:0.0595513 185:0.0301426 186:0.0400187 187:0.0507176 188:0.133095 189:0.254929 190:0.254929 191:0.141222 192:0.072829 193:0.0697561 194:0.137485 195:0.10732 196:0.148601 197:0.106984 198:0.254929 199:0.254929 200:0.254929 201:0.153542 202:0.0265702 203:0.0205237 204:0.0278824 205:0.0436313 206:0.129576 207:0.254929 208:0.254929 209:0.254929 210:0.254929 211:0.0770166 212:0.203446 213:0.117351 214:0.155887 215:0.110176 216:0.243538 217:0.140156 218:0.0965115 219:0.0797627 220:0.100016 221:0.139014 222:0.116887 223:0.189098 224:0.253595 225:0.248225 226:0.242129 227:0.159655 228:0.0531393 229:0.0668028 230:0.0253977 231:0.0227505 232:0.110043 233:0.243822 234:0.265987 235:0.265987 236:0.202177 237:0.12677 238:0.0794766 239:0.117018 240:0.0988117 241:0.121954 242:0.235455 243:0.227223 244:0.265987 245:0.265987 246:0.0361858 247:0.00135045 248:0.0439835 249:0.0576639 250:0.0472368 251:0.148368 252:0.265987 253:0.21704 254:0.142316 255:0.0498802 256:0.0659015 257:0.0276845 258:0.0263749 259:0.113237 260:0.240223 261:0.268782 262:0.268782 263:0.268782 264:0.178845 265:0.0325051 266:0.0313304 267:0.0405484 268:0.055187 269:0.130382 270:0.268782 271:0.268782 272:0.255009 273:0.0357852 274:0.00217448 275:0.0416106 276:0.062106 277:0.051739 278:0.148459 279:0.268782 280:0.268782 281:0.251487 282:0.152245 283:0.0444539 284:0.0209109 285:0.0146718 286:0.0368463 287:0.174467 288:0.268782 289:0.243713 290:0.231756 291:0.132584 292:0.0253736 293:0.019905 294:0.0273701 295:0.0407433 296:0.112025 297:0.243713 298:0.237393 299:0.241504 300:0.216012 301:0.0668098 302:0.179158 303:0.1071 304:0.129761 305:0.0866269 306:0.211565 307:0.243713 308:0.203527 309:0.103942 310:0.0295659 311:0.0159158 312:0.0100532 313:0.024913 314:0.131118 315:0.243713 316:0.231757 317:0.243713 318:0.243713 319:0.115191 320:0.130916 321:0.125176 322:0.0956447 323:0.189275 324:0.243713 325:0.282883 326:0.171254 327:0.108978 328:0.0672287 329:0.0999596 330:0.0924656 331:0.112422 332:0.215894 333:0.204423 334:0.282883 335:0.234778 336:0.0331556 337:0.00104594 338:0.0347982 339:0.0495152 340:0.0446297 341:0.143196 342:0.282883 343:0.282883 344:0.242987 345:0.134832 346:0.113142 347:0.172927 348:0.0853038 349:0.135846 350:0.149701 351:0.172477 352:0.282883 353:0.22311 354:0.0177855 355:0.019022 356:0.0607734 357:0.0509461 358:0.0657255 359:0.102324 360:0.282883 361:0.29513 362:0.229572 363:0.033443 364:0.00174106 365:0.0341672 366:0.0552409 367:0.0503142 368:0.148048 369:0.288215 370:0.29513 371:0.246796 372:0.148345 373:0.0368698 374:0.018209 375:0.0123506 376:0.0355557 377:0.156423 378:0.29513 379:0.29513 380:0.237952 381:0.022419 382:0.0205038 383:0.0607396 384:0.0578763 385:0.0752913 386:0.108042 387:0.29513 388:0.29513 389:0.0896011 390:0.0606748 391:0.0486343 392:0.0184054 393:0.0120123 394:0.016481 395:0.120542 396:0.29513 397:0.269199 398:0.206603 399:0.105797 400:0.025217 401:0.01377 402:0.00857663 403:0.02476 404:0.12342 405:0.269199 406:0.210708 407:0.269199 408:0.269199 409:0.105907 410:0.135554 411:0.111012 412:0.0981538 413:0.169923 414:0.269199 415:0.269199 416:0.076481 417:0.038139 418:0.034067 419:0.0172898 420:0.00957518 421:0.0154891 422:0.0956601 423:0.269199 424:0.269199 425:0.204507 426:0.20348 427:0.10742 428:0.0665653 429:0.101597 430:0.0253538 431:0.145764 432:0.269199 433:0.282228 434:0.210189 435:0.118924 436:0.0967998 437:0.142924 438:0.0765694 439:0.117238 440:0.134415 441:0.156042 442:0.282228 443:0.198453 444:0.0163097 445:0.0141998 446:0.0559455 447:0.0495183 448:0.055763 449:0.0879941 450:0.282228 451:0.282228 452:0.154561 453:0.0919246 454:0.180671 455:0.282228 456:0.120156 457:0.108771 458:0.139458 459:0.1884 460:0.282228 461:0.145396 462:0.037218 463:0.0998854 464:0.0918784 465:0.0383119 466:0.0728093 467:0.198176 468:0.282228 469:0.313791 470:0.218269 471:0.0208292 472:0.0159981 473:0.0576707 474:0.0579835 475:0.0662139 476:0.0965234 477:0.28462 478:0.313791 479:0.090053 480:0.0620322 481:0.047575 482:0.0186925 483:0.012439 484:0.0156428 485:0.11468 486:0.313791 487:0.313791 488:0.162533 489:0.0401995 490:0.109306 491:0.102333 492:0.0453433 493:0.0823484 494:0.209473 495:0.313791 496:0.313791 497:0.0706916 498:0.0726492 499:0.0430579 500:0.0135843 501:0.00824299 502:0.0209722 503:0.117345 504:0.313791 505:0.301324 506:0.0854774 507:0.0446552 508:0.0376 509:0.0193702 510:0.0110623 511:0.0160254 512:0.100596 513:0.301324 514:0.301324 515:0.212641 516:0.210353 517:0.112256 518:0.0756202 519:0.115412 520:0.0272921 521:0.155226 522:0.301324 523:0.301324 524:0.0689569 525:0.0611633 526:0.0358846 527:0.0144498 528:0.00754294 529:0.0227148 530:0.120156 531:0.301324 532:0.301324 533:0.155377 534:0.152953 535:0.119536 536:0.0569878 537:0.0441755 538:0.0139221 539:0.104251 540:0.301324 541:0.235379 542:0.123946 543:0.0785973 544:0.13647 545:0.23145 546:0.091217 547:0.090639 548:0.106758 549:0.14127 550:0.277887 551:0.105854 552:0.0241716 553:0.0721751 554:0.0684954 555:0.0311495 556:0.0559935 557:0.142099 558:0.277887 559:0.277887 560:0.0929474 561:0.0198744 562:0.0899319 563:0.267278 564:0.139201 565:0.0699051 566:0.198662 567:0.277887 568:0.277887 569:0.186214 570:0.0637819 571:0.0657598 572:0.0949774 573:0.0356068 574:0.0895197 575:0.277887 576:0.277887 577:0.282851 578:0.110032 579:0.0251139 580:0.0726633 581:0.0698941 582:0.0339678 583:0.0594779 584:0.139841 585:0.282851 586:0.282851 587:0.0381663 588:0.0418796 589:0.0307922 590:0.0101767 591:0.00590461 592:0.0122845 593:0.0762464 594:0.282851 595:0.282851 596:0.174206 597:0.0533652 598:0.0665514 599:0.0979992 600:0.0363358 601:0.0837115 602:0.282851 603:0.282851 604:0.282851 605:0.282851 606:0.210501 607:0.031815 608:0.0152263 609:0.01741 610:0.0384236 611:0.191891 612:0.282851 613:0.280507 614:0.0414954 615:0.0379001 616:0.0286431 617:0.0120693 618:0.00599971 619:0.0152796 620:0.086573 621:0.280507 622:0.280507 623:0.113561 624:0.119419 625:0.0917994 626:0.0488633 627:0.0391824 628:0.0110339 629:0.0839617 630:0.280507 631:0.280507 632:0.280507 633:0.210758 634:0.0302224 635:0.0167173 636:0.0178289 637:0.0439713 638:0.229909 639:0.280507 640:0.280507 641:0.280507 642:0.224516 643:0.0813977 644:0.0575549 645:0.0683246 646:0.0180258 647:0.065383 648:0.245231 
32 1:0.280531 2:0.0863423 3:0.0521835 4:0.0647395 5:0.0507936 6:0.0400165 7:0.0156096 8:0.0394827 9:0.280531 10:0.280531 11:0.0657354 12:0.0455968 13:0.0277562 14:0.0636677 15:0.0385144 16:0.0311453 17:0.076757 18:0.280531 19:0.226397 20:0.151587 21:0.127303 22:0.185188 23:0.197094 24:0.147408 25:0.0516485 26:0.123204 27:0.280531 28:0.280531 29:0.147501 30:0.151707 31:0.121276 32:0.199703 33:0.130079 34:0.146741 35:0.255775 36:0.280531 37:0.285134 38:0.0552886 39:0.0372537 40:0.0228999 41:0.0471451 42:0.028588 43:0.0236393 44:0.0617196 45:0.285134 46:0.285134 47:0.0834235 48:0.0491189 49:0.0326663 50:0.0550561 51:0.0302398 52:0.0249604 53:0.0677817 54:0.285134 55:0.285134 56:0.119119 57:0.12091 58:0.0987663 59:0.155969 60:0.103057 61:0.113415 62:0.206628 63:0.285134 64:0.285134 65:0.235183 66:0.157632 67:0.151562 68:0.188847 69:0.0993913 70:0.0907408 71:0.16966 72:0.285134 73:0.267317 74:0.0686887 75:0.0428841 76:0.0282331 77:0.0495193 78:0.026436 79:0.0214201 80:0.0540019 81:0.267317 82:0.267317 83:0.0405752 84:0.0219814 85:0.0249268 86:0.177405 87:0.0964946 88:0.0631533 89:0.133632 90:0.267317 91:0.267317 92:0.191642 93:0.137653 94:0.128647 95:0.162374 96:0.082312 97:0.077498 98:0.142195 99:0.267317 100:0.267317 101:0.145305 102:0.105505 103:0.104124 104:0.267317 105:0.211222 106:0.128745 107:0.240505 108:0.229544 109:0.209593 110:0.130016 111:0.10724 112:0.150865 113:0.157071 114:0.11649 115:0.0388362 116:0.0927618 117:0.244174 118:0.273774 119:0.124217 120:0.124997 121:0.0967772 122:0.164918 123:0.106684 124:0.116273 125:0.202624 126:0.273774 127:0.0924539 128:0.128223 129:0.0538852 130:0.106434 131:0.122803 132:0.199557 133:0.0837807 134:0.238981 135:0.273774 136:0.273774 137:0.165825 138:0.0623819 139:0.0536252 140:0.0809266 141:0.0762766 142:0.077583 143:0.273774 144:0.273774 145:0.272583 146:0.0961294 147:0.094955 148:0.075079 149:0.121656 150:0.0797856 151:0.0853185 152:0.155165 153:0.272583 154:0.272583 155:0.177333 156:0.123524 157:0.114185 158:0.146743 159:0.0772929 160:0.0701431 161:0.135131 162:0.271433 163:0.272583 164:0.122919 165:0.0472947 166:0.042232 167:0.0645419 168:0.0649799 169:0.060174 170:0.259068 171:0.272583 172:0.272583 173:0.272583 174:0.0873304 175:0.0655968 176:0.082967 177:0.0379907 178:0.0394271 179:0.149252 180:0.272583 181:0.255389 182:0.147748 183:0.109925 184:0.0989152 185:0.129203 186:0.0655544 187:0.0610046 188:0.114498 189:0.238548 190:0.245458 191:0.104828 192:0.0771844 193:0.0757099 194:0.255389 195:0.17183 196:0.104573 197:0.199628 198:0.204509 199:0.255389 200:0.236475 201:0.0720709 202:0.0553204 203:0.0697302 204:0.0310887 205:0.032903 206:0.132304 207:0.255389 208:0.255389 209:0.255389 210:0.176633 211:0.11284 212:0.245611 213:0.0965634 214:0.0860257 215:0.182878 216:0.140008 217:0.0702885 218:0.104104 219:0.0495948 220:0.100118 221:0.111594 222:0.166682 223:0.0699851 224:0.196511 225:0.283179 226:0.290768 227:0.131951 228:0.057807 229:0.0521792 230:0.0779864 231:0.0698821 232:0.0724493 233:0.272056 234:0.290768 235:0.238532 236:0.205871 237:0.0651611 238:0.0669407 239:0.0958613 240:0.169092 241:0.0529511 242:0.149786 243:0.25137 244:0.290768 245:0.27383 246:0.0354418 247:0.0119543 248:0.0306495 249:0.0286797 250:0.012529 251:0.201217 252:0.290768 253:0.250069 254:0.0955639 255:0.0428343 256:0.0401648 257:0.0604619 258:0.0573533 259:0.0545654 260:0.212157 261:0.300713 262:0.300713 263:0.239437 264:0.0778857 265:0.0611279 266:0.0757996 267:0.0368735 268:0.0365551 269:0.122267 270:0.288434 271:0.300713 272:0.207371 273:0.0288208 274:0.0112921 275:0.026518 276:0.0282091 277:0.0114836 278:0.153727 279:0.300713 280:0.300713 281:0.175894 282:0.0304867 283:0.00709002 284:0.0315126 285:0.00367499 286:0.0157238 287:0.219686 288:0.300713 289:0.274562 290:0.194001 291:0.0657793 292:0.0523909 293:0.0648692 294:0.0307982 295:0.0309861 296:0.109887 297:0.272447 298:0.26524 299:0.274321 300:0.144989 301:0.0940945 302:0.220034 303:0.0889274 304:0.0762756 305:0.157278 306:0.101773 307:0.274562 308:0.148805 309:0.0237507 310:0.00577432 311:0.0262786 312:0.00279402 313:0.0112826 314:0.186538 315:0.274562 316:0.274562 317:0.204902 318:0.110086 319:0.0575408 320:0.135408 321:0.0731899 322:0.0962076 323:0.248527 324:0.274562 325:0.200051 326:0.175916 327:0.0540092 328:0.0577983 329:0.0838949 330:0.160774 331:0.0515694 332:0.150093 333:0.235004 334:0.32954 335:0.23961 336:0.0309868 337:0.010438 338:0.0279224 339:0.0290025 340:0.0127312 341:0.195029 342:0.32954 343:0.32954 344:0.19559 345:0.0941381 346:0.0986323 347:0.097801 348:0.0770815 349:0.0443038 350:0.0824302 351:0.242408 352:0.32954 353:0.1431 354:0.0238474 355:0.0124462 356:0.0191686 357:0.0149874 358:0.0109444 359:0.055795 360:0.32954 361:0.329445 362:0.166121 363:0.0230132 364:0.00899997 365:0.0222275 366:0.025871 367:0.0106193 368:0.137932 369:0.329445 370:0.329445 371:0.158375 372:0.0281388 373:0.00639917 374:0.0273669 375:0.00338848 376:0.0132817 377:0.176807 378:0.329445 379:0.329445 380:0.105306 381:0.0200394 382:0.0114593 383:0.015595 384:0.0128959 385:0.00937103 386:0.0401265 387:0.329445 388:0.329445 389:0.0239947 390:0.00491143 391:0.00262685 392:0.0114042 393:0.00163422 394:0.00625585 395:0.0854877 396:0.329445 397:0.322253 398:0.138451 399:0.0226601 400:0.0053502 401:0.0237963 402:0.00271215 403:0.00993435 404:0.1572 405:0.322253 406:0.260716 407:0.196887 408:0.104209 409:0.0545132 410:0.117918 411:0.0631982 412:0.0829743 413:0.209935 414:0.322253 415:0.322253 416:0.02435 417:0.00444658 418:0.00253218 419:0.00988938 420:0.00130053 421:0.0048034 422:0.073799 423:0.322253 424:0.322253 425:0.0253994 426:0.0378793 427:0.0278635 428:0.0910164 429:0.038922 430:0.0609719 431:0.113009 432:0.322253 433:0.293845 434:0.168542 435:0.0805717 436:0.078024 437:0.0774507 438:0.0688864 439:0.0357447 440:0.0633541 441:0.196556 442:0.351049 443:0.130431 444:0.0212808 445:0.0112063 446:0.0173893 447:0.0125656 448:0.00849901 449:0.0466773 450:0.351049 451:0.302201 452:0.145881 453:0.0567691 454:0.0887474 455:0.194739 456:0.102362 457:0.0689554 458:0.170455 459:0.28739 460:0.351049 461:0.0542354 462:0.0147453 463:0.0085241 464:0.0184473 465:0.0361888 466:0.0291733 467:0.0837016 468:0.351049 469:0.3487 470:0.0901683 471:0.0167837 472:0.00949726 473:0.0130949 474:0.010321 475:0.00689409 476:0.0309538 477:0.3487 478:0.3487 479:0.0219741 480:0.00495466 481:0.00263007 482:0.0109571 483:0.00149383 484:0.00568918 485:0.0756008 486:0.3487 487:0.3487 488:0.0418124 489:0.0117026 490:0.00778395 491:0.0159317 492:0.0272035 493:0.0223765 494:0.0640184 495:0.3487 496:0.3487 497:0.00500711 498:0.00114986 499:0.00292674 500:0.00603994 501:0.0013439 502:0.000640664 503:0.00140671 504:0.3487 505:0.34738 506:0.0211692 507:0.00415934 508:0.00238754 509:0.00911353 510:0.00114079 511:0.00420752 512:0.0625712 513:0.34738 514:0.34738 515:0.0241822 516:0.0311908 517:0.0210309 518:0.0710348 519:0.0313336 520:0.0480482 521:0.0959673 522:0.34738 523:0.34738 524:0.00434948 525:0.000938004 526:0.00249519 527:0.00519324 528:0.00128532 529:0.000751277 530:0.00198257 531:0.34738 532:0.34738 533:0.0212764 534:0.0276965 535:0.0224606 536:0.0551181 537:0.018465 538:0.0391026 539:0.020461 540:0.34738 541:0.265808 542:0.128112 543:0.0479432 544:0.0761548 545:0.154791 546:0.0812787 547:0.0580502 548:0.132932 549:0.234792 550:0.332392 551:0.0469075 552:0.0111885 553:0.00635212 554:0.0132862 555:0.0283219 556:0.0223075 557:0.0635319 558:0.332392 559:0.257308 560:0.125784 561:0.0789112 562:0.0822241 563:0.195307 564:0.104065 565:0.0680018 566:0.198504 567:0.308829 568:0.332392 569:0.0975092 570:0.0384503 571:0.0227561 572:0.0660574 573:0.0479837 574:0.0945638 575:0.185622 576:0.332392 577:0.342671 578:0.0378288 579:0.00940618 580:0.00635316 581:0.0124145 582:0.0223429 583:0.0179746 584:0.0508283 585:0.342671 586:0.342671 587:0.00289397 588:0.000452734 589:0.00138513 590:0.00318803 591:0.000651141 592:0.00060483 593:0.0015055 594:0.342671 595:0.342671 596:0.0670283 597:0.0282854 598:0.0182251 599:0.0484285 600:0.0357231 601:0.0690618 602:0.133435 603:0.342671 604:0.342671 605:0.107794 606:0.0427532 607:0.0342442 608:0.0625476 609:0.00835085 610:0.0146067 611:0.0375047 612:0.342671 613:0.345466 614:0.00257865 615:0.000366774 616:0.00119464 617:0.00269522 618:0.000595982 619:0.000579398 620:0.00184248 621:0.345466 622:0.345466 623:0.0172786 624:0.0245177 625:0.0202463 626:0.0476228 627:0.0158257 628:0.0327844 629:0.0174954 630:0.345466 631:0.345466 632:0.0909464 633:0.0341848 634:0.0278616 635:0.0529531 636:0.00837526 637:0.0157648 638:0.0388254 639:0.345466 640:0.345466 641:0.0762389 642:0.0637172 643:0.050817 644:0.0884932 645:0.0164109 646:0.0302665 647:0.0151128 648:0.345466 
32 1:0.283706 2:0.0860178 3:0.0615609 4:0.116607 5:0.194209 6:0.0602145 7:0.0167309 8:0.0182534 9:0.195626 10:0.283706 11:0.222163 12:0.0997691 13:0.0717878 14:0.0880665 15:0.0530705 16:0.0445964 17:0.107766 18:0.283706 19:0.264661 20:0.100063 21:0.0896244 22:0.177892 23:0.283706 24:0.108088 25:0.0817306 26:0.0534422 27:0.200314 28:0.283706 29:0.10186 30:0.106952 31:0.104573 32:0.166775 33:0.143736 34:0.143112 35:0.194411 36:0.283706 37:0.29322 38:0.164777 39:0.0790995 40:0.0591983 41:0.0775187 42:0.0395092 43:0.0303738 44:0.0739025 45:0.29322 46:0.29322 47:0.120897 48:0.058274 49:0.034751 50:0.0684261 51:0.0745879 52:0.0919631 53:0.199357 54:0.29322 55:0.29322 56:0.0798764 57:0.0857049 58:0.0872221 59:0.147176 60:0.105177 61:0.105591 62:0.14455 63:0.29322 64:0.29322 65:0.128995 66:0.126927 67:0.0976321 68:0.103533 69:0.126932 70:0.101431 71:0.123341 72:0.29322 73:0.28035 74:0.115689 75:0.0526119 76:0.0313908 77:0.057388 78:0.0621592 79:0.0745356 80:0.164718 81:0.28035 82:0.28035 83:0.0150592 84:0.0173057 85:0.0153895 86:0.15795 87:0.111408 88:0.0915039 89:0.168553 90:0.28035 91:0.28035 92:0.105841 93:0.104872 94:0.0803333 95:0.0842339 96:0.110768 97:0.0904294 98:0.113956 99:0.28035 100:0.28035 101:0.102902 102:0.0766836 103:0.0907168 104:0.28035 105:0.200297 106:0.103489 107:0.115043 108:0.28035 109:0.250588 110:0.0902669 111:0.0778352 112:0.153233 113:0.277621 114:0.0929732 115:0.0666202 116:0.039811 117:0.180966 118:0.277621 119:0.0947319 120:0.0935174 121:0.0878337 122:0.142414 123:0.123361 124:0.120441 125:0.154939 126:0.277621 127:0.120135 128:0.0812928 129:0.0709749 130:0.182288 131:0.277621 132:0.139541 133:0.0972171 134:0.158892 135:0.211188 136:0.277621 137:0.120063 138:0.0549884 139:0.0812402 140:0.107593 141:0.0832956 142:0.0986734 143:0.277621 144:0.277621 145:0.288732 146:0.0743052 147:0.0747557 148:0.0730234 149:0.125549 150:0.0902115 151:0.0883812 152:0.113682 153:0.288732 154:0.288732 155:0.102189 156:0.109093 157:0.0811314 158:0.0895721 159:0.107786 160:0.0876071 161:0.1084 162:0.288732 163:0.288732 164:0.0869312 165:0.0442374 166:0.0709484 167:0.0956498 168:0.0654645 169:0.0781578 170:0.256615 171:0.288732 172:0.288732 173:0.2487 174:0.091998 175:0.0543006 176:0.0525387 177:0.0564373 178:0.0464554 179:0.14074 180:0.288732 181:0.272481 182:0.0849626 183:0.090233 184:0.0667014 185:0.072786 186:0.0942284 187:0.0775709 188:0.0986276 189:0.272481 190:0.272481 191:0.0768313 192:0.0619079 193:0.0693297 194:0.257153 195:0.16928 196:0.0923082 197:0.108445 198:0.272481 199:0.272481 200:0.19489 201:0.0689091 202:0.0439233 203:0.0432068 204:0.0474777 205:0.0409535 206:0.128576 207:0.272481 208:0.272481 209:0.272481 210:0.163751 211:0.126752 212:0.170204 213:0.132273 214:0.0671484 215:0.102851 216:0.229234 217:0.101596 218:0.0681166 219:0.065236 220:0.158345 221:0.252313 222:0.114583 223:0.0910458 224:0.130905 225:0.180726 226:0.296 227:0.0921399 228:0.0529756 229:0.0738833 230:0.101358 231:0.0763946 232:0.0932693 233:0.2695 234:0.296 235:0.264443 236:0.119237 237:0.0697534 238:0.170535 239:0.228318 240:0.177183 241:0.0625236 242:0.100971 243:0.155007 244:0.296 245:0.274976 246:0.0499304 247:0.0551948 248:0.0474887 249:0.0372464 250:0.0280065 251:0.166998 252:0.296 253:0.237321 254:0.0624831 255:0.0400453 256:0.060093 257:0.0841393 258:0.0555355 259:0.0688076 260:0.200328 261:0.312391 262:0.312391 263:0.190542 264:0.0771109 265:0.0486237 266:0.0479808 267:0.0519218 268:0.0425935 269:0.10848 270:0.312391 271:0.312391 272:0.196189 273:0.0408199 274:0.0477804 275:0.0428878 276:0.0337525 277:0.0237781 278:0.124362 279:0.312391 280:0.312391 281:0.180368 282:0.0396384 283:0.00756533 284:0.0119977 285:0.00375648 286:0.0158723 287:0.184594 288:0.312391 289:0.290697 290:0.153181 291:0.059903 292:0.0405064 293:0.0406264 294:0.0448116 295:0.0386614 296:0.103049 297:0.290697 298:0.290697 299:0.229177 300:0.13027 301:0.104619 302:0.15182 303:0.119888 304:0.0590606 305:0.0775796 306:0.178344 307:0.290697 308:0.159921 309:0.0301357 310:0.00673841 311:0.0104442 312:0.00287825 313:0.0117764 314:0.148752 315:0.290697 316:0.290697 317:0.169859 318:0.116017 319:0.0737559 320:0.111938 321:0.0820459 322:0.100521 323:0.275484 324:0.290697 325:0.20702 326:0.096403 327:0.0579087 328:0.147765 329:0.190341 330:0.148869 331:0.0546466 332:0.0951488 333:0.132774 334:0.342173 335:0.220038 336:0.0402023 337:0.0487908 338:0.0421609 339:0.0325397 340:0.0263989 341:0.15837 342:0.342173 343:0.342173 344:0.0721924 345:0.0799341 346:0.104236 347:0.212657 348:0.129739 349:0.108966 350:0.0414747 351:0.198829 352:0.342173 353:0.141919 354:0.0500467 355:0.0240368 356:0.02348 357:0.0211033 358:0.0454567 359:0.0284522 360:0.342173 361:0.337681 362:0.141447 363:0.0295864 364:0.0381841 365:0.0341172 366:0.0264718 367:0.0201343 368:0.107201 369:0.31773 370:0.337681 371:0.145696 372:0.0342834 373:0.00695725 374:0.00995964 375:0.00334676 376:0.012206 377:0.137056 378:0.337681 379:0.337681 380:0.0953855 381:0.0381548 382:0.0196281 383:0.0226284 384:0.0181327 385:0.0349748 386:0.0197334 387:0.337681 388:0.337681 389:0.0370302 390:0.00453909 391:0.000518299 392:0.00218281 393:0.000633433 394:0.00916039 395:0.0707237 396:0.337681 397:0.327387 398:0.129906 399:0.0262385 400:0.0061957 401:0.00889636 402:0.00262686 403:0.00926655 404:0.113974 405:0.327387 406:0.272625 407:0.144873 408:0.0999525 409:0.0621626 410:0.0855056 411:0.0648084 412:0.0767509 413:0.202211 414:0.327387 415:0.327387 416:0.0389461 417:0.00485449 418:0.000639415 419:0.00192838 420:0.000486056 421:0.00756792 422:0.0545137 423:0.327387 424:0.327387 425:0.037216 426:0.0442725 427:0.0343271 428:0.107855 429:0.0392269 430:0.0687973 431:0.145703 432:0.327387 433:0.322646 434:0.0667842 435:0.0688209 436:0.0862659 437:0.16829 438:0.111857 439:0.08669 440:0.0319362 441:0.158517 442:0.347987 443:0.132846 444:0.0455526 445:0.020775 446:0.0190673 447:0.0186 448:0.0343837 449:0.0204071 450:0.347987 451:0.267219 452:0.0598453 453:0.0768034 454:0.0978229 455:0.321608 456:0.104148 457:0.156281 458:0.0837091 459:0.197967 460:0.347987 461:0.0494111 462:0.0333658 463:0.0212698 464:0.0351338 465:0.0246488 466:0.0927998 467:0.068034 468:0.347987 469:0.349012 470:0.0888411 471:0.0345308 472:0.0167871 473:0.0180933 474:0.015826 475:0.0264651 476:0.0137383 477:0.340231 478:0.349012 479:0.0348482 480:0.0050995 481:0.000814012 482:0.0021687 483:0.000631934 484:0.00870247 485:0.0661917 486:0.349012 487:0.349012 488:0.0375814 489:0.0254573 490:0.0176912 491:0.0337072 492:0.0202741 493:0.0702577 494:0.0518028 495:0.349012 496:0.349012 497:0.00166756 498:0.000279958 499:0 500:0 501:0 502:0.00168792 503:0.00241822 504:0.349012 505:0.34205 506:0.035112 507:0.00495197 508:0.000830446 509:0.00184364 510:0.000469846 511:0.00679904 512:0.0487863 513:0.34205 514:0.34205 515:0.0324022 516:0.0369768 517:0.0281805 518:0.08366 519:0.0327824 520:0.0582014 521:0.130047 522:0.34205 523:0.34205 524:0.00315659 525:0.000481814 526:0 527:0 528:0 529:0.00274643 530:0.00372492 531:0.34205 532:0.34205 533:0.0257198 534:0.0291241 535:0.023806 536:0.145154 537:0.0191158 538:0.0314389 539:0.0281856 540:0.34205 541:0.265089 542:0.053041 543:0.067673 544:0.0882255 545:0.287165 546:0.0962961 547:0.146637 548:0.0729128 549:0.185661 550:0.333149 551:0.0442604 552:0.0293312 553:0.0185734 554:0.030921 555:0.0223557 556:0.0851411 557:0.0573361 558:0.333149 559:0.220604 560:0.133776 561:0.134049 562:0.10085 563:0.333149 564:0.114671 565:0.0933858 566:0.0792559 567:0.185484 568:0.333149 569:0.110392 570:0.0853934 571:0.0376478 572:0.067389 573:0.0210002 574:0.0479212 575:0.0516425 576:0.333149 577:0.347435 578:0.0352576 579:0.0235234 580:0.0162916 581:0.0313065 582:0.0192195 583:0.0676447 584:0.0458564 585:0.347435 586:0.347435 587:0.00176624 588:0.000357179 589:0 590:0 591:0 592:0.00225085 593:0.00324083 594:0.347435 595:0.347435 596:0.0875598 597:0.0672703 598:0.0312684 599:0.0557981 600:0.01834 601:0.0379084 602:0.0413652 603:0.347435 604:0.347435 605:0.00529915 606:0.00312104 607:0.0042174 608:0.0298177 609:0.000951699 610:0.00176661 611:0.0039127 612:0.347435 613:0.341478 614:0.00309548 615:0.000531071 616:0 617:0 618:0 619:0.00304024 620:0.00392254 621:0.341478 622:0.341478 623:0.0255376 624:0.0307532 625:0.024639 626:0.134415 627:0.0175495 628:0.0305109 629:0.0282127 630:0.341478 631:0.341478 632:0.00711863 633:0.00350725 634:0.00377086 635:0.0259472 636:0.000846561 637:0.002199 638:0.00481025 639:0.341478 640:0.341478 641:0.0351178 642:0.0210486 643:0.0246239 644:0.193254 645:0.0153824 646:0.0197867 647:0.0187418 648:0.341478 
32 1:0.258371 2:0.204226 3:0.0878242 4:0.11845 5:0.0389937 6:0.0119675 7:0.0373814 8:0.0530909 9:0.168431 10:0.258371 11:0.185954 12:0.0939948 13:0.0590075 14:0.0238252 15:0.0125644 16:0.10934 17:0.158545 18:0.258371 19:0.231911 20:0.148439 21:0.148733 22:0.243198 23:0.0836772 24:0.0701446 25:0.111426 26:0.229462 27:0.200562 28:0.258371 29:0.201706 30:0.1996 31:0.0613175 32:0.0124075 33:0.0262701 34:0.23461 35:0.258371 36:0.258371 37:0.256335 38:0.154165 39:0.0736416 40:0.0520297 41:0.0191908 42:0.00968019 43:0.0869418 44:0.124551 45:0.256335 46:0.256335 47:0.134468 48:0.0825603 49:0.0219703 50:0.0365559 51:0.0685184 52:0.0844081 53:0.206648 54:0.256335 55:0.256335 56:0.151136 57:0.151058 58:0.0568 59:0.0115725 60:0.022475 61:0.191752 62:0.256335 63:0.256335 64:0.256335 65:0.256335 66:0.249379 67:0.0258407 68:0.0151613 69:0.066326 70:0.136075 71:0.177188 72:0.256335 73:0.24524 74:0.117359 75:0.0767295 76:0.0205136 77:0.0289507 78:0.0529916 79:0.0709922 80:0.172443 81:0.24524 82:0.235643 83:0.0578856 84:0.0253206 85:0.0229146 86:0.0770771 87:0.144596 88:0.123361 89:0.217412 90:0.24524 91:0.24524 92:0.24524 93:0.222463 94:0.0231854 95:0.0116342 96:0.0514337 97:0.115252 98:0.1572 99:0.24524 100:0.244057 101:0.216762 102:0.116626 103:0.0539578 104:0.141444 105:0.218929 106:0.217646 107:0.198734 108:0.24524 109:0.2018 110:0.127746 111:0.11748 112:0.185879 113:0.0647819 114:0.0509678 115:0.0858831 116:0.172294 117:0.14862 118:0.265942 119:0.16268 120:0.158876 121:0.0486314 122:0.0101392 123:0.0195951 124:0.185711 125:0.277758 126:0.277758 127:0.15352 128:0.092554 129:0.085433 130:0.163587 131:0.103751 132:0.0765573 133:0.0799123 134:0.277758 135:0.277758 136:0.277758 137:0.152929 138:0.0705687 139:0.0245062 140:0.0111614 141:0.0164807 142:0.0865907 143:0.277758 144:0.277758 145:0.202212 146:0.118172 147:0.115809 148:0.0430136 149:0.00897228 150:0.0161666 151:0.146198 152:0.23433 153:0.230501 154:0.276611 155:0.273557 156:0.187222 157:0.0207054 158:0.0122747 159:0.0485633 160:0.104313 161:0.140314 162:0.254141 163:0.280418 164:0.116327 165:0.0535836 166:0.0233381 167:0.0105481 168:0.0136957 169:0.0704675 170:0.256072 171:0.280418 172:0.280418 173:0.280418 174:0.104386 175:0.0167008 176:0.0167761 177:0.0378596 178:0.0481905 179:0.129079 180:0.280418 181:0.258049 182:0.25316 183:0.18382 184:0.0205858 185:0.0103473 186:0.0412985 187:0.0968851 188:0.135804 189:0.240594 190:0.198219 191:0.171302 192:0.0918825 193:0.0433576 194:0.11654 195:0.182406 196:0.186728 197:0.17621 198:0.238679 199:0.263878 200:0.262564 201:0.0971736 202:0.0125838 203:0.0138352 204:0.0314482 205:0.0435061 206:0.12535 207:0.263878 208:0.263878 209:0.263878 210:0.106562 211:0.106056 212:0.20144 213:0.130952 214:0.095336 215:0.0931252 216:0.149341 217:0.110186 218:0.0707037 219:0.0734241 220:0.140943 221:0.0847043 222:0.0643123 223:0.0692853 224:0.237224 225:0.26455 226:0.307662 227:0.121531 228:0.0658744 229:0.0237153 230:0.0099269 231:0.0152943 232:0.0818183 233:0.266073 234:0.307662 235:0.307662 236:0.183994 237:0.0654419 238:0.0676274 239:0.104798 240:0.0728797 241:0.0501377 242:0.121424 243:0.307662 244:0.307662 245:0.22205 246:0.0200121 247:0.00766975 248:0.00480514 249:0.00100618 250:0.00917318 251:0.143499 252:0.307662 253:0.287463 254:0.0893731 255:0.0487407 256:0.0218336 257:0.00915385 258:0.0124753 259:0.064946 260:0.210706 261:0.313836 262:0.313836 263:0.239411 264:0.0946366 265:0.014362 266:0.0144229 267:0.0329311 268:0.0445626 269:0.0999255 270:0.29243 271:0.313836 272:0.182103 273:0.017938 274:0.00693108 275:0.00485432 276:0.000913804 277:0.00921299 278:0.106238 279:0.313836 280:0.313836 281:0.127803 282:0.0150684 283:0.0122432 284:0.00574819 285:0.0108263 286:0.0212679 287:0.189943 288:0.313836 289:0.295696 290:0.227584 291:0.092716 292:0.0118994 293:0.0125016 294:0.0287959 295:0.0423588 296:0.102259 297:0.295696 298:0.295696 299:0.254383 300:0.0942897 301:0.0833867 302:0.164414 303:0.117519 304:0.0884078 305:0.0792683 306:0.107589 307:0.295696 308:0.127399 309:0.0137072 310:0.00746922 311:0.00474701 312:0.00855391 313:0.01803 314:0.176941 315:0.295696 316:0.295696 317:0.136214 318:0.0574163 319:0.136898 320:0.196376 321:0.0694468 322:0.0556112 323:0.169938 324:0.295696 325:0.258444 326:0.152865 327:0.0558456 328:0.0619398 329:0.092522 330:0.0629948 331:0.043277 332:0.113935 333:0.272648 334:0.335798 335:0.183442 336:0.0170406 337:0.00637088 338:0.00473052 339:0.00141895 340:0.00863185 341:0.134787 342:0.335798 343:0.335798 344:0.168369 345:0.0620204 346:0.0650653 347:0.0838469 348:0.0497792 349:0.0569374 350:0.0915585 351:0.326799 352:0.335798 353:0.122345 354:0.018436 355:0.0108825 356:0.00163797 357:4.92795e-005 358:0.0107953 359:0.0430701 360:0.335798 361:0.33783 362:0.142648 363:0.0144738 364:0.00558054 365:0.00450951 366:0.00117156 367:0.00806564 368:0.0953935 369:0.33783 370:0.33783 371:0.112564 372:0.013786 373:0.0107978 374:0.00605179 375:0.00972035 376:0.0165354 377:0.151682 378:0.33783 379:0.33783 380:0.0982208 381:0.0159531 382:0.00907048 383:0.00151685 384:8.22408e-005 385:0.00957001 386:0.032706 387:0.33783 388:0.33783 389:0.0281555 390:0.00349809 391:0.00290878 392:0.000387705 393:0.002706 394:0.0157551 395:0.072173 396:0.33783 397:0.332031 398:0.111546 399:0.0125052 400:0.0067222 401:0.00505926 402:0.00772479 403:0.013988 404:0.14237 405:0.332031 406:0.304693 407:0.121645 408:0.0459131 409:0.114205 410:0.168832 411:0.0587571 412:0.0449625 413:0.132218 414:0.302947 415:0.332031 416:0.0294449 417:0.00349895 418:0.00184735 419:0.00029136 420:0.00222212 421:0.0138115 422:0.0646016 423:0.332031 424:0.332031 425:0.0546844 426:0.0556375 427:0.0577106 428:0.0794163 429:0.0455317 430:0.0357246 431:0.108045 432:0.332031 433:0.307021 434:0.146209 435:0.057206 436:0.054351 437:0.0739403 438:0.0439272 439:0.0450824 440:0.069779 441:0.27234 442:0.340957 443:0.116079 444:0.0176239 445:0.0100393 446:0.00179963 447:4.63854e-005 448:0.00834897 449:0.0392055 450:0.340957 451:0.302145 452:0.179366 453:0.0592466 454:0.0832721 455:0.093133 456:0.0436602 457:0.113235 458:0.221474 459:0.299833 460:0.340957 461:0.0539889 462:0.0164653 463:0.0078254 464:9.01795e-005 465:0 466:0.0283723 467:0.073791 468:0.340957 469:0.349002 470:0.0908769 471:0.0149061 472:0.00820359 473:0.00162909 474:7.59272e-005 475:0.00726845 476:0.0282259 477:0.349002 478:0.349002 479:0.0281888 480:0.00350862 481:0.00306014 482:0.000665483 483:0.0029996 484:0.0155171 485:0.0690481 486:0.349002 487:0.349002 488:0.0458501 489:0.0136919 490:0.00659964 491:7.72194e-005 492:0 493:0.0239175 494:0.0627372 495:0.349002 496:0.349002 497:0.003183 498:0.000113961 499:3.51697e-005 500:0 501:0.000126887 502:0.000999992 503:0.00261986 504:0.349002 505:0.346922 506:0.028158 507:0.00330192 508:0.00185605 509:0.000498947 510:0.00235922 511:0.0128807 512:0.0589912 513:0.346922 514:0.346922 515:0.0432234 516:0.0426649 517:0.0514539 518:0.0692282 519:0.0385613 520:0.032503 521:0.0903677 522:0.346922 523:0.346922 524:0.00179399 525:0.000117317 526:3.95844e-005 527:0 528:0.000105814 529:0.000836097 530:0.00124961 531:0.346922 532:0.346922 533:0.0345214 534:0.0370871 535:0.0283194 536:0.0152358 537:0.0298223 538:0.0300119 539:0.0447581 540:0.346922 541:0.278736 542:0.156734 543:0.0535171 544:0.0753272 545:0.0817563 546:0.0392475 547:0.0985704 548:0.182819 549:0.26559 550:0.326662 551:0.04777 552:0.0149515 553:0.00791238 554:0.000186486 555:0 556:0.0245478 557:0.060802 558:0.326662 559:0.322838 560:0.316165 561:0.100427 562:0.0329524 563:0.0934461 564:0.0451843 565:0.0778407 566:0.157838 567:0.240755 568:0.326662 569:0.103795 570:0.0362044 571:0.00497961 572:0.00341386 573:0.0168575 574:0.0148535 575:0.0514419 576:0.326662 577:0.349802 578:0.0427112 579:0.0131742 580:0.00702066 581:0.000168591 582:0 583:0.0218367 584:0.0546732 585:0.349802 586:0.349802 587:0.00358189 588:0.000248809 589:7.6785e-005 590:0 591:0.000277028 592:0.00218325 593:0.00281956 594:0.349802 595:0.349802 596:0.092636 597:0.0306386 598:0.00392687 599:0.00240927 600:0.0118277 601:0.0134602 602:0.044713 603:0.349802 604:0.349802 605:0.0100406 606:0.000458798 607:0.00531464 608:0.00423911 609:0.0068811 610:0.000815995 611:0.00389242 612:0.349802 613:0.350733 614:0.00213916 615:0.000250802 616:8.46239e-005 617:0 618:0.00022621 619:0.00178742 620:0.00144118 621:0.350733 622:0.350733 623:0.0346768 624:0.0372481 625:0.0269985 626:0.0155585 627:0.0269988 628:0.027447 629:0.0404708 630:0.350733 631:0.350733 632:0.00858151 633:0.000407271 634:0.00468028 635:0.00372785 636:0.00717943 637:0.000821857 638:0.0031466 639:0.350733 640:0.350733 641:0.0325642 642:0.025881 643:0.0352422 644:0.0153886 645:0.0279954 646:0.0303603 647:0.0247326 648:0.350733 
32 1:0.049912 2:0.0147122 3:0.235695 4:0.291069 5:0.291069 6:0.0146886 7:0.0154216 8:0.0390421 9:0.0588276 10:0.208268 11:0.0182754 12:0.125411 13:0.184417 14:0.247265 15:0.0278095 16:0.0341308 17:0.0958704 18:0.291069 19:0.0585974 20:0.0152144 21:0.279726 22:0.291069 23:0.291069 24:0.0275611 25:0.0366683 26:0.0382033 27:0.0545918 28:0.171554 29:0.0586635 30:0.151222 31:0.275489 32:0.249221 33:0.0640679 34:0.0669599 35:0.108428 36:0.203779 37:0.233143 38:0.0199734 39:0.161481 40:0.242643 41:0.264673 42:0.0332053 43:0.041026 44:0.111074 45:0.264673 46:0.264673 47:0.049945 48:0.0529491 49:0.0381091 50:0.0174881 51:0.0452542 52:0.052573 53:0.13341 54:0.264673 55:0.19519 56:0.0650121 57:0.193824 58:0.264673 59:0.264673 60:0.0736413 61:0.080451 62:0.123351 63:0.220603 64:0.233799 65:0.129444 66:0.136061 67:0.187043 68:0.0951561 69:0.078617 70:0.0699254 71:0.147604 72:0.264673 73:0.28762 74:0.04468 75:0.0477306 76:0.0372619 77:0.0173501 78:0.0411328 79:0.0482041 80:0.123872 81:0.28762 82:0.28762 83:0.0649846 84:0.0713749 85:0.0333108 86:0.0555321 87:0.0917219 88:0.04871 89:0.10514 90:0.28762 91:0.228707 92:0.121177 93:0.12123 94:0.17378 95:0.0864419 96:0.0796171 97:0.0683237 98:0.142129 99:0.28762 100:0.185952 101:0.127141 102:0.244127 103:0.28762 104:0.28762 105:0.167956 106:0.0497995 107:0.0961145 108:0.237778 109:0.0524132 110:0.0132399 111:0.264491 112:0.320246 113:0.320246 114:0.0246116 115:0.0315539 116:0.0363208 117:0.0511296 118:0.161867 119:0.0492339 120:0.142026 121:0.253831 122:0.238458 123:0.056043 124:0.0589706 125:0.100008 126:0.199567 127:0.0651552 128:0.0200849 129:0.219395 130:0.320246 131:0.320246 132:0.0265888 133:0.0432603 134:0.0453195 135:0.076062 136:0.16093 137:0.0914813 138:0.10412 139:0.194272 140:0.227029 141:0.0497302 142:0.0778955 143:0.156809 144:0.225609 145:0.18178 146:0.0540655 147:0.180819 148:0.242862 149:0.242862 150:0.0641832 151:0.070136 152:0.113365 153:0.214066 154:0.218974 155:0.113397 156:0.119923 157:0.160947 158:0.0818167 159:0.0664112 160:0.0617388 161:0.128146 162:0.242862 163:0.179226 164:0.0988747 165:0.135136 166:0.242862 167:0.242862 168:0.0563755 169:0.0945889 170:0.173026 171:0.242862 172:0.242862 173:0.177938 174:0.115679 175:0.193637 176:0.16013 177:0.0792606 178:0.0542021 179:0.193091 180:0.242862 181:0.196262 182:0.0971703 183:0.0977821 184:0.137866 185:0.0685471 186:0.0617702 187:0.0554588 188:0.113556 189:0.270564 190:0.167961 191:0.107751 192:0.198296 193:0.230941 194:0.270564 195:0.14423 196:0.0419446 197:0.0802094 198:0.221003 199:0.244955 200:0.151908 201:0.0976298 202:0.156543 203:0.133807 204:0.0704538 205:0.0497048 206:0.170442 207:0.270564 208:0.146409 209:0.14372 210:0.270564 211:0.270564 212:0.270564 213:0.114917 214:0.0277571 215:0.0818289 216:0.111665 217:0.0637022 218:0.0181577 219:0.195823 220:0.32648 221:0.32648 222:0.0261534 223:0.0423715 224:0.0435578 225:0.0707163 226:0.15151 227:0.0834795 228:0.0955033 229:0.186155 230:0.215976 231:0.0499608 232:0.0755023 233:0.146347 234:0.201073 235:0.108378 236:0.0223994 237:0.169677 238:0.32648 239:0.32648 240:0.0151683 241:0.0281504 242:0.0578647 243:0.145413 244:0.32648 245:0.0600277 246:0.0497121 247:0.0966821 248:0.12918 249:0.0193296 250:0.046654 251:0.116144 252:0.32648 253:0.168839 254:0.0897886 255:0.12284 256:0.252822 257:0.271448 258:0.0564334 259:0.0913397 260:0.161141 261:0.217927 262:0.253154 263:0.165052 264:0.109328 265:0.18049 266:0.147731 267:0.0744502 268:0.0520848 269:0.178114 270:0.271448 271:0.271448 272:0.0653155 273:0.065346 274:0.133452 275:0.179044 276:0.0224367 277:0.0568906 278:0.134648 279:0.271448 280:0.271448 281:0.137317 282:0.0890499 283:0.137788 284:0.117172 285:0.0672976 286:0.0338948 287:0.107267 288:0.271448 289:0.197974 290:0.123352 291:0.0804316 292:0.128507 293:0.108168 294:0.0583889 295:0.041735 296:0.13748 297:0.241223 298:0.117526 299:0.117341 300:0.225446 301:0.306638 302:0.306638 303:0.0940236 304:0.0226121 305:0.0672675 306:0.0907898 307:0.306638 308:0.0997587 309:0.0644575 310:0.0898725 311:0.0755068 312:0.0474989 313:0.0270646 314:0.0833331 315:0.306638 316:0.155334 317:0.130223 318:0.230069 319:0.306638 320:0.306638 321:0.105149 322:0.0262132 323:0.0439477 324:0.124108 325:0.098544 326:0.0213113 327:0.165036 328:0.316357 329:0.316357 330:0.0133118 331:0.0253409 332:0.0529611 333:0.132157 334:0.303884 335:0.0618013 336:0.0527193 337:0.0975599 338:0.131882 339:0.0183762 340:0.0440373 341:0.113383 342:0.316357 343:0.142247 344:0.0377741 345:0.114755 346:0.316357 347:0.316357 348:0.0450489 349:0.0758123 350:0.0904937 351:0.158101 352:0.316357 353:0.0489875 354:0.0117448 355:0.0343935 356:0.0474602 357:0.0269694 358:0.0584316 359:0.104317 360:0.316357 361:0.307534 362:0.0664345 363:0.0685433 364:0.133654 365:0.180453 366:0.0210749 367:0.0531633 368:0.129373 369:0.307534 370:0.307534 371:0.135863 372:0.0868818 373:0.137342 374:0.1158 375:0.0610147 376:0.0315362 377:0.109074 378:0.307534 379:0.307534 380:0.0563884 381:0.0163003 382:0.0526236 383:0.0677295 384:0.0332639 385:0.0737263 386:0.131951 387:0.307534 388:0.307534 389:0.112017 390:0.0871511 391:0.0838249 392:0.128014 393:0.0594724 394:0.0260283 395:0.0578219 396:0.307534 397:0.275744 398:0.0829414 399:0.0529153 400:0.0755394 401:0.06389 402:0.0363045 403:0.0210911 404:0.07059 405:0.314595 406:0.120089 407:0.102969 408:0.18179 409:0.314595 410:0.314595 411:0.077912 412:0.0195996 413:0.0358945 414:0.093335 415:0.307762 416:0.0677019 417:0.0473509 418:0.0436451 419:0.0520803 420:0.031725 421:0.0177075 422:0.0399819 423:0.314595 424:0.132339 425:0.107647 426:0.225812 427:0.314595 428:0.314595 429:0.114051 430:0.0140565 431:0.0338564 432:0.150799 433:0.160494 434:0.0391482 435:0.131408 436:0.306388 437:0.306388 438:0.0446564 439:0.0735738 440:0.0920081 441:0.174343 442:0.306388 443:0.0508759 444:0.0130249 445:0.0417801 446:0.0571821 447:0.026865 448:0.0599133 449:0.106377 450:0.306388 451:0.116007 452:0.0866276 453:0.162899 454:0.306388 455:0.306388 456:0.0776853 457:0.139852 458:0.0958568 459:0.159151 460:0.251508 461:0.107064 462:0.0794396 463:0.0681806 464:0.0783997 465:0.0565722 466:0.0804264 467:0.128429 468:0.306388 469:0.290478 470:0.0512626 471:0.015875 472:0.0545132 473:0.0708224 474:0.0289976 475:0.0655522 476:0.117095 477:0.290478 478:0.290478 479:0.103568 480:0.0783268 481:0.0838766 482:0.1173 483:0.0557629 484:0.0255842 485:0.0509087 486:0.290478 487:0.241647 488:0.106474 489:0.0810465 490:0.0733448 491:0.0791802 492:0.0578087 493:0.0911061 494:0.139103 495:0.290478 496:0.290478 497:0.175103 498:0.22888 499:0.183656 500:0.290478 501:0.0920823 502:0.0229976 503:0.0602158 504:0.290478 505:0.274936 506:0.0575426 507:0.0401873 508:0.0402896 509:0.0443142 510:0.0274885 511:0.0159124 512:0.0323519 513:0.327597 514:0.116534 515:0.0934831 516:0.187272 517:0.327597 518:0.327597 519:0.09561 520:0.0134783 521:0.0268928 522:0.131244 523:0.186101 524:0.100214 525:0.107537 526:0.091145 527:0.147304 528:0.0500256 529:0.0151086 530:0.0399328 531:0.218031 532:0.0992039 533:0.0989376 534:0.327597 535:0.327597 536:0.327597 537:0.124577 538:0.00586122 539:0.0230794 540:0.0903403 541:0.120716 542:0.0789162 543:0.156809 544:0.25755 545:0.25755 546:0.0774301 547:0.133852 548:0.0933428 549:0.155871 550:0.25755 551:0.0998847 552:0.0710592 553:0.0608657 554:0.0710998 555:0.0507869 556:0.0749129 557:0.122536 558:0.25755 559:0.25755 560:0.134058 561:0.19893 562:0.25755 563:0.222319 564:0.0597929 565:0.145353 566:0.10444 567:0.25755 568:0.189002 569:0.205 570:0.209951 571:0.137596 572:0.154851 573:0.0956742 574:0.139236 575:0.137766 576:0.170177 577:0.233621 578:0.0902489 579:0.0660367 580:0.0608769 581:0.0663053 582:0.0479614 583:0.0775353 584:0.121372 585:0.260564 586:0.260564 587:0.153865 588:0.186137 589:0.152896 590:0.252419 591:0.0740668 592:0.0177496 593:0.0536452 594:0.260564 595:0.170284 596:0.18353 597:0.189686 598:0.124001 599:0.136374 600:0.0858563 601:0.136776 602:0.131348 603:0.162733 604:0.213388 605:0.194128 606:0.260564 607:0.260564 608:0.260564 609:0.175117 610:0.0554414 611:0.0573559 612:0.122529 613:0.168892 614:0.0854739 615:0.0854728 616:0.073455 617:0.117129 618:0.0381001 619:0.0113447 620:0.0343247 621:0.2105 622:0.0892024 623:0.0869834 624:0.328911 625:0.328911 626:0.328911 627:0.109996 628:0.00464883 629:0.0218803 630:0.085543 631:0.120018 632:0.115027 633:0.178284 634:0.147335 635:0.27177 636:0.0983878 637:0.0356219 638:0.0381898 639:0.0683666 640:0.0683519 641:0.0613871 642:0.328911 643:0.328911 644:0.328911 645:0.141521 646:0.00898598 647:0.0102181 648:0.0462401 
32 1:0.344114 2:0.101102 3:0.0492453 4:0.034441 5:0.0200847 6:0.00200011 7:0.00168049 8:0.00762672 9:0.344114 10:0.344114 11:0.0130079 12:0.000974224 13:0.000841341 14:0.000323728 15:0.000191466 16:0.0343521 17:0.0741244 18:0.344114 19:0.344114 20:0.154121 21:0.0766431 22:0.153549 23:0.184013 24:0.0119633 25:0.0124226 26:0.026484 27:0.209464 28:0.344114 29:0.0973647 30:0.00870694 31:0.0366443 32:0.0214987 33:0.00578148 34:0.0209062 35:0.0523895 36:0.344114 37:0.342713 38:0.0123361 39:0.00112112 40:0.000763794 41:0.000273399 42:0.000156547 43:0.0233225 44:0.0496108 45:0.342713 46:0.342713 47:0.00975276 48:0.00077477 49:0.000633498 50:0.000140398 51:0.000618087 52:0.0654308 53:0.128302 54:0.342713 55:0.342713 56:0.072438 57:0.00838073 58:0.0323172 59:0.0194451 60:0.00436071 61:0.0151696 62:0.0367056 63:0.342713 64:0.342713 65:0.111784 66:0.0163394 67:0.010403 68:0.00564661 69:0.0147383 70:0.0317739 71:0.102451 72:0.342713 73:0.344767 74:0.00690965 75:0.000338594 76:0.000375104 77:5.18934e-005 78:0.000228455 79:0.0551073 80:0.107081 81:0.344767 82:0.344767 83:0.0290106 84:0.0110217 85:0.00298086 86:0.00320494 87:0.00951791 88:0.0527914 89:0.0724887 90:0.344767 91:0.344767 92:0.0937402 93:0.0114644 94:0.00618621 95:0.00332725 96:0.00973374 97:0.0233668 98:0.0770092 99:0.344767 100:0.279925 101:0.0654285 102:0.0305246 103:0.0643502 104:0.0675859 105:0.0677153 106:0.103528 107:0.133101 108:0.344767 109:0.315278 110:0.175354 111:0.085574 112:0.155994 113:0.175719 114:0.0107953 115:0.0103928 116:0.0226186 117:0.247087 118:0.315278 119:0.0970257 120:0.00869495 121:0.0352797 122:0.0211477 123:0.00554294 124:0.0178162 125:0.0473999 126:0.315278 127:0.157811 128:0.0568028 129:0.0451082 130:0.188456 131:0.315278 132:0.0741368 133:0.0854378 134:0.182644 135:0.109894 136:0.315278 137:0.109736 138:0.0116592 139:0.0580683 140:0.0436375 141:0.0188391 142:0.10429 143:0.297681 144:0.29965 145:0.319915 146:0.0821103 147:0.00943097 148:0.034903 149:0.0213595 150:0.00464519 151:0.0143521 152:0.0367403 153:0.319915 154:0.319915 155:0.120684 156:0.0159176 157:0.0112614 158:0.00632603 159:0.0167812 160:0.0336085 161:0.112926 162:0.319915 163:0.304324 164:0.0816128 165:0.0114642 166:0.0583529 167:0.0476609 168:0.0174307 169:0.0916472 170:0.257203 171:0.242811 172:0.319915 173:0.255254 174:0.0892327 175:0.0163887 176:0.0398821 177:0.041439 178:0.0766537 179:0.186459 180:0.299356 181:0.300515 182:0.108536 183:0.0119302 184:0.00719751 185:0.00402966 186:0.0118286 187:0.026326 188:0.0904702 189:0.300515 190:0.300515 191:0.0768798 192:0.0345215 193:0.0739272 194:0.0776107 195:0.0820494 196:0.132034 197:0.169211 198:0.300515 199:0.300515 200:0.218921 201:0.0704988 202:0.0110855 203:0.0288083 204:0.0292359 205:0.0656569 206:0.168761 207:0.273926 208:0.152844 209:0.191822 210:0.113821 211:0.121499 212:0.289072 213:0.20746 214:0.125505 215:0.143464 216:0.199285 217:0.16859 218:0.060328 219:0.0457572 220:0.183455 221:0.292173 222:0.0604015 223:0.068331 224:0.154743 225:0.105289 226:0.292173 227:0.110252 228:0.0114009 229:0.0577474 230:0.0417336 231:0.0168427 232:0.0907073 233:0.254297 234:0.28212 235:0.133825 236:0.0552132 237:0.0728335 238:0.121788 239:0.292173 240:0.185968 241:0.15171 242:0.206951 243:0.145484 244:0.292173 245:0.15712 246:0.0710018 247:0.0304123 248:0.0494751 249:0.0258299 250:0.0845003 251:0.292173 252:0.292173 253:0.280253 254:0.0848639 255:0.011553 256:0.0591684 257:0.0461523 258:0.0157512 259:0.0810125 260:0.223569 261:0.234 262:0.280253 263:0.241732 264:0.0792821 265:0.0149065 266:0.0351782 267:0.0399399 268:0.0717887 269:0.181607 270:0.280253 271:0.280253 272:0.123728 273:0.0634155 274:0.0318838 275:0.0567429 276:0.0286229 277:0.0825222 278:0.280253 279:0.280253 280:0.280253 281:0.254005 282:0.119869 283:0.0341298 284:0.0529856 285:0.0331054 286:0.0366463 287:0.148142 288:0.280253 289:0.267006 290:0.197952 291:0.0591789 292:0.00960063 293:0.0239946 294:0.0268787 295:0.0580456 296:0.153489 297:0.262286 298:0.148031 299:0.165914 300:0.0966595 301:0.103271 302:0.246725 303:0.182221 304:0.112785 305:0.137808 306:0.204191 307:0.267006 308:0.204854 309:0.0927118 310:0.0207112 311:0.0307484 312:0.0199588 313:0.0308488 314:0.135074 315:0.267006 316:0.156504 317:0.187243 318:0.169669 319:0.267006 320:0.267006 321:0.217378 322:0.0583022 323:0.0666756 324:0.221746 325:0.0902653 326:0.0326946 327:0.0521973 328:0.09513 329:0.288409 330:0.129695 331:0.109333 332:0.160417 333:0.103098 334:0.284269 335:0.102053 336:0.049164 337:0.0245173 338:0.0364797 339:0.0188417 340:0.0679474 341:0.269278 342:0.288409 343:0.221098 344:0.130817 345:0.0646284 346:0.115783 347:0.288409 348:0.199624 349:0.111771 350:0.107424 351:0.14443 352:0.288409 353:0.288409 354:0.10098 355:0.0270987 356:0.053493 357:0.0292649 358:0.0785968 359:0.222951 360:0.288409 361:0.236655 362:0.0796591 363:0.044609 364:0.0260184 365:0.0425921 366:0.0208631 367:0.0665689 368:0.243653 369:0.296832 370:0.298329 371:0.192757 372:0.0924192 373:0.0240653 374:0.0423863 375:0.0258402 376:0.0303959 377:0.116491 378:0.298329 379:0.298329 380:0.251782 381:0.0896572 382:0.0285807 383:0.0593056 384:0.0348692 385:0.0755516 386:0.193381 387:0.298329 388:0.298329 389:0.159156 390:0.061533 391:0.02782 392:0.0235748 393:0.0173203 394:0.0250733 395:0.170726 396:0.298329 397:0.283455 398:0.16172 399:0.0746026 400:0.0154281 401:0.0264751 402:0.0162455 403:0.026748 404:0.111275 405:0.283455 406:0.116724 407:0.149476 408:0.129047 409:0.193074 410:0.283455 411:0.179101 412:0.0496807 413:0.0545705 414:0.160187 415:0.283455 416:0.145849 417:0.0489458 418:0.0183502 419:0.0113808 420:0.0121329 421:0.0234101 422:0.155425 423:0.283455 424:0.208303 425:0.128682 426:0.16951 427:0.283455 428:0.283455 429:0.099081 430:0.0329841 431:0.0819717 432:0.283455 433:0.188747 434:0.107132 435:0.0593998 436:0.0981099 437:0.277168 438:0.166047 439:0.0980292 440:0.0931375 441:0.125953 442:0.277168 443:0.240422 444:0.0891089 445:0.0227866 446:0.0467578 447:0.0223647 448:0.0619827 449:0.188906 450:0.277168 451:0.134678 452:0.102681 453:0.041134 454:0.122987 455:0.277168 456:0.247793 457:0.143964 458:0.123881 459:0.1258 460:0.277168 461:0.211793 462:0.0871552 463:0.0458115 464:0.0463091 465:0.0557842 466:0.115997 467:0.277168 468:0.271633 469:0.288162 470:0.217571 471:0.0826945 472:0.0252025 473:0.0543845 474:0.0283278 475:0.062853 476:0.171516 477:0.288162 478:0.288162 479:0.145283 480:0.0575794 481:0.0268882 482:0.023416 483:0.0155016 484:0.0188967 485:0.148106 486:0.288162 487:0.288162 488:0.196447 489:0.0772517 490:0.0451995 491:0.0492888 492:0.0628802 493:0.112234 494:0.288162 495:0.240345 496:0.21672 497:0.149775 498:0.106279 499:0.021932 500:0.0210412 501:0.026303 502:0.0595129 503:0.25786 504:0.288162 505:0.27699 506:0.139079 507:0.0482862 508:0.0182767 509:0.0117587 510:0.0109308 511:0.0185809 512:0.140954 513:0.27699 514:0.190716 515:0.117932 516:0.156326 517:0.27699 518:0.27699 519:0.100438 520:0.0281676 521:0.0744818 522:0.27699 523:0.221001 524:0.137274 525:0.0872319 526:0.0199234 527:0.0168535 528:0.0223612 529:0.054866 530:0.253122 531:0.27699 532:0.118209 533:0.240524 534:0.261312 535:0.112656 536:0.134373 537:0.0941708 538:0.0806806 539:0.107689 540:0.248748 541:0.122622 542:0.0966583 543:0.0379277 544:0.115458 545:0.252902 546:0.209786 547:0.118999 548:0.107043 549:0.113783 550:0.252902 551:0.196577 552:0.074324 553:0.03923 554:0.0415135 555:0.0465009 556:0.105506 557:0.252902 558:0.252902 559:0.130842 560:0.0844028 561:0.0345413 562:0.0447291 563:0.22492 564:0.207971 565:0.252902 566:0.224688 567:0.252902 568:0.252902 569:0.19419 570:0.111868 571:0.0561262 572:0.0370818 573:0.0388861 574:0.142334 575:0.234665 576:0.252902 577:0.268105 578:0.200927 579:0.0733028 580:0.0435205 581:0.0493314 582:0.0581709 583:0.1123 584:0.268105 585:0.247499 586:0.224345 587:0.142323 588:0.0879682 589:0.0194935 590:0.0202581 591:0.0243424 592:0.0563371 593:0.256804 594:0.268105 595:0.268105 596:0.198512 597:0.0972949 598:0.0530548 599:0.0388007 600:0.0477732 601:0.155011 602:0.236368 603:0.268105 604:0.167958 605:0.268105 606:0.268105 607:0.0711766 608:0.0349745 609:0.0160285 610:0.0565371 611:0.145894 612:0.152945 613:0.233395 614:0.135009 615:0.0733503 616:0.0179821 617:0.015967 618:0.0210349 619:0.053785 620:0.258438 621:0.310606 622:0.130274 623:0.220582 624:0.246348 625:0.126134 626:0.145362 627:0.0962043 628:0.0784521 629:0.109121 630:0.276658 631:0.18149 632:0.280127 633:0.310606 634:0.0640059 635:0.0322654 636:0.0141974 637:0.0550707 638:0.149999 639:0.159815 640:0.100699 641:0.310606 642:0.310606 643:0.0609122 644:0.0719211 645:0.042455 646:0.0402852 647:0.0473425 648:0.0498445 
32 1:0.327215 2:0.141514 3:0.0669723 4:0.080553 5:0.0166025 6:0.00927267 7:0.00143025 8:0.00406251 9:0.308323 10:0.327215 11:0.0213798 12:0.00649882 13:0.00797986 14:0.00712912 15:0.00597465 16:0.00477909 17:0.0118319 18:0.327215 19:0.213815 20:0.127682 21:0.200564 22:0.327155 23:0.187123 24:0.0318714 25:0.0192985 26:0.0290351 27:0.222366 28:0.280598 29:0.062688 30:0.114497 31:0.150896 32:0.0351564 33:0.0354861 34:0.096182 35:0.122212 36:0.327215 37:0.354915 38:0.0261505 39:0.00728927 40:0.00851485 41:0.00665073 42:0.00578009 43:0.0041649 44:0.0101706 45:0.354915 46:0.354915 47:0.00611644 48:0.00334749 49:0.00147371 50:0.00713773 51:0.00230757 52:0.00627619 53:0.0376538 54:0.354915 55:0.263695 56:0.0658652 57:0.118487 58:0.159782 59:0.0368668 60:0.0322233 61:0.0840908 62:0.10691 63:0.354915 64:0.254424 65:0.0483151 66:0.0619126 67:0.0265332 68:0.036777 69:0.0360917 70:0.110974 71:0.131068 72:0.354915 73:0.343763 74:0.00646123 75:0.00340995 76:0.0014755 77:0.00731923 78:0.00239099 79:0.00607299 80:0.032941 81:0.343763 82:0.343763 83:0.0150261 84:0.00239049 85:0.00129996 86:0.0219237 87:0.0776253 88:0.0884015 89:0.125528 90:0.343763 91:0.260205 92:0.0509001 93:0.0650723 94:0.0300064 95:0.0354524 96:0.0348576 97:0.107745 98:0.127058 99:0.343763 100:0.176866 101:0.0290716 102:0.0295776 103:0.0424085 104:0.193339 105:0.175871 106:0.183572 107:0.14583 108:0.332292 109:0.231812 110:0.125856 111:0.175874 112:0.273357 113:0.154588 114:0.0281379 115:0.0162995 116:0.024551 117:0.234066 118:0.273357 119:0.0560662 120:0.0936558 121:0.12567 122:0.0278031 123:0.0291935 124:0.0797491 125:0.104482 126:0.273357 127:0.0846278 128:0.0872294 129:0.273357 130:0.273357 131:0.273357 132:0.0661559 133:0.0380491 134:0.0475482 135:0.084597 136:0.273357 137:0.0745532 138:0.209625 139:0.190095 140:0.0714744 141:0.0571181 142:0.120484 143:0.182963 144:0.273357 145:0.288645 146:0.0645982 147:0.105485 148:0.144612 149:0.031647 150:0.0290673 151:0.0757714 152:0.0990803 153:0.288645 154:0.288645 155:0.0459967 156:0.0559468 157:0.0238597 158:0.0321999 159:0.0287732 160:0.100361 161:0.129591 162:0.288645 163:0.288645 164:0.0790073 165:0.236144 166:0.21971 167:0.0839841 168:0.0563571 169:0.117261 170:0.17516 171:0.288645 172:0.288645 173:0.0747191 174:0.0692165 175:0.0254251 176:0.0626774 177:0.0904103 178:0.162565 179:0.167135 180:0.288645 181:0.302568 182:0.0513515 183:0.0622897 184:0.0286091 185:0.0329191 186:0.0296155 187:0.103163 188:0.132242 189:0.302568 190:0.219132 191:0.0303346 192:0.0286951 193:0.0401459 194:0.18447 195:0.181784 196:0.190318 197:0.165524 198:0.302568 199:0.302568 200:0.0794625 201:0.0800715 202:0.0322147 203:0.0614403 204:0.089695 205:0.166459 206:0.178519 207:0.302568 208:0.102565 209:0.0473114 210:0.0452972 211:0.104738 212:0.302568 213:0.202731 214:0.231841 215:0.10514 216:0.106537 217:0.0805582 218:0.084515 219:0.270812 220:0.282224 221:0.282224 222:0.0579657 223:0.0347945 224:0.0451527 225:0.0872496 226:0.282224 227:0.0712131 228:0.197074 229:0.190143 230:0.0644791 231:0.0514833 232:0.11827 233:0.177339 234:0.282224 235:0.1513 236:0.0813681 237:0.163307 238:0.161258 239:0.282224 240:0.0876169 241:0.0537759 242:0.0535813 243:0.143743 244:0.282224 245:0.106937 246:0.136548 247:0.0603043 248:0.0972676 249:0.0617083 250:0.0832815 251:0.189515 252:0.282224 253:0.278571 254:0.0754225 255:0.221228 256:0.219049 257:0.0756659 258:0.0505981 259:0.114198 260:0.168988 261:0.278571 262:0.278571 263:0.0714627 264:0.070257 265:0.0260116 266:0.0574226 267:0.0801813 268:0.159531 269:0.160641 270:0.278571 271:0.278571 272:0.10913 273:0.148583 274:0.0700408 275:0.112468 276:0.062684 277:0.085623 278:0.183149 279:0.278571 280:0.278571 281:0.0911989 282:0.0465774 283:0.0321472 284:0.0722737 285:0.0666284 286:0.0668476 287:0.173807 288:0.278571 289:0.302065 290:0.0774733 291:0.0819797 292:0.0335859 293:0.0571168 294:0.0806971 295:0.165449 296:0.174099 297:0.302065 298:0.0998531 299:0.0440151 300:0.044278 301:0.0952829 302:0.302065 303:0.192305 304:0.228811 305:0.103138 306:0.111529 307:0.302065 308:0.0989696 309:0.0540352 310:0.0293077 311:0.0695048 312:0.0687688 313:0.0733129 314:0.193417 315:0.302065 316:0.148203 317:0.0529367 318:0.0400429 319:0.300053 320:0.302065 321:0.123878 322:0.0808789 323:0.089467 324:0.143679 325:0.140039 326:0.0732764 327:0.162141 328:0.160765 329:0.298027 330:0.0794746 331:0.0467435 332:0.0486543 333:0.127099 334:0.298027 335:0.0929443 336:0.130159 337:0.064906 338:0.0886544 339:0.0574092 340:0.0771628 341:0.174106 342:0.298027 343:0.147075 344:0.0884277 345:0.0852347 346:0.149126 347:0.298027 348:0.180898 349:0.0827679 350:0.0768784 351:0.182959 352:0.24255 353:0.160204 354:0.0848976 355:0.0541905 356:0.207096 357:0.135187 358:0.106601 359:0.257852 360:0.298027 361:0.280438 362:0.0970089 363:0.145497 364:0.0771105 365:0.105236 366:0.0594311 367:0.0806131 368:0.171728 369:0.280438 370:0.280438 371:0.0863089 372:0.0421119 373:0.0258683 374:0.0672612 375:0.0680797 376:0.0675986 377:0.162504 378:0.280438 379:0.257714 380:0.165176 381:0.0874074 382:0.0595569 383:0.22798 384:0.141121 385:0.10913 386:0.253824 387:0.280438 388:0.219207 389:0.120812 390:0.0806116 391:0.0988236 392:0.1681 393:0.0920327 394:0.0810154 395:0.199613 396:0.227288 397:0.31992 398:0.0906635 399:0.0478398 400:0.0235183 401:0.0627741 402:0.0678836 403:0.0717336 404:0.176279 405:0.31992 406:0.139376 407:0.05139 408:0.0354759 409:0.248029 410:0.31992 411:0.126419 412:0.0830085 413:0.0821297 414:0.133935 415:0.233372 416:0.1316 417:0.08434 418:0.089757 419:0.164291 420:0.100642 421:0.0887083 422:0.22312 423:0.257722 424:0.11316 425:0.0403785 426:0.0856187 427:0.31992 428:0.31992 429:0.103942 430:0.0488696 431:0.0670999 432:0.0960475 433:0.125116 434:0.0734059 435:0.072825 436:0.121555 437:0.278157 438:0.131435 439:0.0594192 440:0.061681 441:0.156119 442:0.216252 443:0.126327 444:0.0687942 445:0.0378936 446:0.160406 447:0.100609 448:0.0823956 449:0.216421 450:0.278157 451:0.092893 452:0.0842857 453:0.0502432 454:0.142976 455:0.278157 456:0.278157 457:0.22236 458:0.0787731 459:0.112297 460:0.273288 461:0.24263 462:0.105013 463:0.118157 464:0.146201 465:0.209183 466:0.197978 467:0.174051 468:0.197821 469:0.231679 470:0.132733 471:0.0726792 472:0.0431034 473:0.180562 474:0.106506 475:0.0858264 476:0.216577 477:0.255137 478:0.202996 479:0.100287 480:0.0590928 481:0.0732274 482:0.131975 483:0.0729496 484:0.0638875 485:0.170311 486:0.207653 487:0.255137 488:0.24621 489:0.103922 490:0.126003 491:0.165295 492:0.234755 493:0.219065 494:0.178856 495:0.217008 496:0.255137 497:0.255137 498:0.17547 499:0.132173 500:0.142052 501:0.0836353 502:0.0863832 503:0.112769 504:0.0945651 505:0.2027 506:0.102052 507:0.0584414 508:0.0614935 509:0.120406 510:0.0745589 511:0.0657408 512:0.178693 513:0.220462 514:0.0957685 515:0.0330279 516:0.0564497 517:0.300324 518:0.300324 519:0.0815567 520:0.0371451 521:0.0540633 522:0.0819558 523:0.300324 524:0.28368 525:0.161067 526:0.121506 527:0.124948 528:0.0840692 529:0.0920415 530:0.119434 531:0.105808 532:0.126911 533:0.236091 534:0.300324 535:0.300324 536:0.300324 537:0.0900145 538:0.0432434 539:0.0249187 540:0.0294589 541:0.0835242 542:0.0728812 543:0.0455843 544:0.122473 545:0.274334 546:0.274334 547:0.173832 548:0.0666588 549:0.10189 550:0.230732 551:0.199627 552:0.0859352 553:0.093564 554:0.125551 555:0.17148 556:0.1593 557:0.152787 558:0.184558 559:0.0939595 560:0.0684296 561:0.0176318 562:0.0529935 563:0.274334 564:0.274334 565:0.252475 566:0.092385 567:0.0995163 568:0.274334 569:0.274334 570:0.0929306 571:0.0708107 572:0.114494 573:0.196529 574:0.159799 575:0.133105 576:0.16331 577:0.230836 578:0.196683 579:0.0826309 580:0.0969796 581:0.137507 582:0.185345 583:0.169544 584:0.151483 585:0.195237 586:0.26554 587:0.221404 588:0.134117 589:0.101286 590:0.120291 591:0.0720657 592:0.0736611 593:0.0979141 594:0.0869698 595:0.267577 596:0.267577 597:0.0851888 598:0.0697942 599:0.125477 600:0.219826 601:0.179301 602:0.138402 603:0.177571 604:0.267577 605:0.267577 606:0.267577 607:0.151835 608:0.0899172 609:0.0339141 610:0.0262607 611:0.0553392 612:0.0545361 613:0.244159 614:0.197272 615:0.112324 616:0.0841646 617:0.0961627 618:0.0657702 619:0.0706091 620:0.0940515 621:0.0880929 622:0.0930777 623:0.160718 624:0.229796 625:0.298325 626:0.298325 627:0.0720972 628:0.0349768 629:0.0204223 630:0.0245284 631:0.298325 632:0.298325 633:0.224651 634:0.122927 635:0.0756438 636:0.0338275 637:0.0287179 638:0.0563619 639:0.06023 640:0.131259 641:0.298325 642:0.298325 643:0.298325 644:0.167339 645:0.0153511 646:0.00679576 647:0.00359041 648:0.0172999 
32 1:0.299982 2:0.0333057 3:0.0211405 4:0.0600547 5:0.0581184 6:0.0302166 7:0.0176133 8:0.0188656 9:0.283103 10:0.299982 11:0.0468507 12:0.0183904 13:0.0109376 14:0.0259397 15:0.0375244 16:0.02378 17:0.0250072 18:0.299982 19:0.299982 20:0.0880706 21:0.1317 22:0.205052 23:0.219398 24:0.144033 25:0.0431883 26:0.114707 27:0.299982 28:0.299982 29:0.0970192 30:0.122519 31:0.0912869 32:0.0484849 33:0.217808 34:0.0770091 35:0.17708 36:0.299982 37:0.310554 38:0.0411798 39:0.0163198 40:0.0106029 41:0.021779 42:0.033258 43:0.0213195 44:0.0215795 45:0.310554 46:0.310554 47:0.046229 48:0.0198405 49:0.0221238 50:0.0356608 51:0.0353154 52:0.0132812 53:0.0279385 54:0.310554 55:0.310554 56:0.0833928 57:0.106896 58:0.0829599 59:0.0455774 60:0.190636 61:0.0663818 62:0.15933 63:0.310554 64:0.310554 65:0.155048 66:0.15725 67:0.114971 68:0.0863336 69:0.159288 70:0.0683669 71:0.145989 72:0.310554 73:0.290585 74:0.0420163 75:0.0179704 76:0.0178994 77:0.0309313 78:0.0292829 79:0.012775 80:0.0239646 81:0.290585 82:0.290585 83:0.0131383 84:0.0109405 85:0.0236034 86:0.0647527 87:0.0773899 88:0.0233693 89:0.0613417 90:0.290585 91:0.290585 92:0.134622 93:0.14046 94:0.100126 95:0.0709784 96:0.139761 97:0.0604534 98:0.126119 99:0.290585 100:0.290585 101:0.0989198 102:0.0853069 103:0.104829 104:0.290585 105:0.270026 106:0.0721838 107:0.136577 108:0.290585 109:0.273127 110:0.064518 111:0.0936487 112:0.156723 113:0.160289 114:0.0983711 115:0.028582 116:0.0828442 117:0.271009 118:0.273127 119:0.0699168 120:0.085472 121:0.0636071 122:0.03385 123:0.149565 124:0.0557464 125:0.125205 126:0.273127 127:0.214573 128:0.0636798 129:0.10737 130:0.192058 131:0.2199 132:0.200066 133:0.111985 134:0.172743 135:0.273127 136:0.273127 137:0.124311 138:0.0896586 139:0.0763522 140:0.0442012 141:0.169413 142:0.0637241 143:0.209379 144:0.273127 145:0.289872 146:0.0616544 147:0.0763943 148:0.0594435 149:0.0324511 150:0.133954 151:0.0491153 152:0.114926 153:0.289872 154:0.289872 155:0.1105 156:0.112146 157:0.0809028 158:0.0617275 159:0.113594 160:0.0496408 161:0.107659 162:0.289872 163:0.289872 164:0.107567 165:0.0804973 166:0.0707141 167:0.0439045 168:0.154615 169:0.0601607 170:0.200443 171:0.289872 172:0.289872 173:0.249065 174:0.130219 175:0.114218 176:0.0886308 177:0.118726 178:0.0489155 179:0.127787 180:0.271372 181:0.269932 182:0.097249 183:0.101034 184:0.0711321 185:0.0511928 186:0.100112 187:0.0444641 188:0.0938311 189:0.269932 190:0.269932 191:0.0686173 192:0.0631136 193:0.073576 194:0.228092 195:0.206898 196:0.0556369 197:0.10848 198:0.269932 199:0.269932 200:0.212611 201:0.114485 202:0.0975061 203:0.0718888 204:0.104648 205:0.04104 206:0.113664 207:0.245383 208:0.269932 209:0.181819 210:0.0979578 211:0.194873 212:0.269932 213:0.206034 214:0.058298 215:0.0766353 216:0.155578 217:0.203662 218:0.0599628 219:0.107053 220:0.18732 221:0.213434 222:0.188507 223:0.0987321 224:0.163047 225:0.271281 226:0.271281 227:0.111144 228:0.094669 229:0.0814916 230:0.0461363 231:0.179146 232:0.0632322 233:0.195323 234:0.271281 235:0.260923 236:0.0902122 237:0.125032 238:0.157725 239:0.153653 240:0.154819 241:0.14351 242:0.113534 243:0.271281 244:0.271281 245:0.144231 246:0.0467838 247:0.0211562 248:0.0125423 249:0.0330274 250:0.0359529 251:0.136327 252:0.271281 253:0.300289 254:0.095973 255:0.084876 256:0.0753931 257:0.0458163 258:0.163305 259:0.0595237 260:0.187289 261:0.300289 262:0.300289 263:0.228467 264:0.136492 265:0.118992 266:0.0916494 267:0.125933 268:0.0510412 269:0.120485 270:0.237051 271:0.300289 272:0.135473 273:0.0476887 274:0.0212726 275:0.0138012 276:0.0310267 277:0.0349628 278:0.130962 279:0.300289 280:0.300289 281:0.161312 282:0.0322452 283:0.0247698 284:0.022992 285:0.0629232 286:0.0456812 287:0.137409 288:0.300289 289:0.272408 290:0.19324 291:0.119397 292:0.101244 293:0.0738159 294:0.110685 295:0.0426597 296:0.105962 297:0.212583 298:0.272408 299:0.166109 300:0.0975093 301:0.179962 302:0.272408 303:0.204615 304:0.0589555 305:0.0739725 306:0.139914 307:0.272408 308:0.138203 309:0.0266926 310:0.0185086 311:0.0175848 312:0.0499475 313:0.0359297 314:0.118901 315:0.272408 316:0.272408 317:0.123829 318:0.0541854 319:0.182803 320:0.272408 321:0.155203 322:0.0640514 323:0.0877499 324:0.272408 325:0.245258 326:0.08518 327:0.11795 328:0.165024 329:0.161225 330:0.158103 331:0.141601 332:0.121965 333:0.297846 334:0.297846 335:0.144394 336:0.0470693 337:0.0266672 338:0.0152334 339:0.0404537 340:0.0360989 341:0.14954 342:0.297846 343:0.297846 344:0.0910546 345:0.216648 346:0.167491 347:0.148208 348:0.104206 349:0.163358 350:0.0973633 351:0.238007 352:0.297846 353:0.0699584 354:0.0651216 355:0.0120081 356:0.0122408 357:0.0149414 358:0.0292432 359:0.0393346 360:0.297846 361:0.330805 362:0.130024 363:0.0457551 364:0.0255801 365:0.0160873 366:0.0366738 367:0.0341709 368:0.139375 369:0.330805 370:0.330805 371:0.17328 372:0.0357437 373:0.0310141 374:0.0269223 375:0.0627802 376:0.0422258 377:0.131339 378:0.330805 379:0.330805 380:0.068701 381:0.0665126 382:0.0114084 383:0.0123358 384:0.0126806 385:0.0277049 386:0.0385303 387:0.330805 388:0.330805 389:0.0495811 390:0.0319449 391:0.00451572 392:0.00465647 393:0.0450731 394:0.0424665 395:0.0650494 396:0.330805 397:0.29108 398:0.147895 399:0.0298772 400:0.0239785 401:0.0206023 402:0.0499536 403:0.0328439 404:0.113947 405:0.29108 406:0.29108 407:0.125393 408:0.0532889 409:0.173792 410:0.29108 411:0.156655 412:0.0616074 413:0.0823091 414:0.253787 415:0.29108 416:0.0393025 417:0.0250912 418:0.00323919 419:0.00360873 420:0.0370041 421:0.0341887 422:0.0534012 423:0.29108 424:0.29108 425:0.109354 426:0.0973928 427:0.181459 428:0.220499 429:0.112153 430:0.0593881 431:0.063079 432:0.29108 433:0.280775 434:0.0796734 435:0.190315 436:0.146671 437:0.1285 438:0.0935554 439:0.144185 440:0.086891 441:0.201212 442:0.318284 443:0.0692838 444:0.0596143 445:0.0117473 446:0.0106271 447:0.0147322 448:0.0281409 449:0.0418519 450:0.318284 451:0.318284 452:0.141506 453:0.172837 454:0.141164 455:0.16211 456:0.0981963 457:0.122536 458:0.11977 459:0.318284 460:0.318284 461:0.0408767 462:0.0458126 463:0.00772676 464:0.0167115 465:0.00504031 466:0.00977985 467:0.0358758 468:0.318284 469:0.347984 470:0.064319 471:0.0581166 472:0.0107651 473:0.0102833 474:0.0118962 475:0.0252147 476:0.0388934 477:0.347984 478:0.347984 479:0.0489238 480:0.0279272 481:0.00421683 482:0.0045408 483:0.0441032 484:0.0411183 485:0.0608409 486:0.347984 487:0.347984 488:0.0433808 489:0.044071 490:0.00721005 491:0.0160275 492:0.00483356 493:0.0104722 494:0.0343782 495:0.347984 496:0.347984 497:0.0314791 498:0.0191272 499:0.00283894 500:0.000141579 501:0.00332741 502:0.00829041 503:0.0176147 504:0.347984 505:0.328116 506:0.04114 507:0.0229847 508:0.00316965 509:0.00367156 510:0.0374845 511:0.0343897 512:0.0523702 513:0.328116 514:0.296906 515:0.0949782 516:0.0842962 517:0.156018 518:0.206311 519:0.104521 520:0.0563973 521:0.0576438 522:0.328116 523:0.328116 524:0.0256569 525:0.0153936 526:0.0026138 527:0.000134025 528:0.00282152 529:0.00703778 530:0.0136312 531:0.328116 532:0.328116 533:0.0735733 534:0.082472 535:0.128494 536:0.066595 537:0.0925032 538:0.0424214 539:0.0474615 540:0.328116 541:0.309881 542:0.112052 543:0.16064 544:0.124707 545:0.137427 546:0.0806578 547:0.105857 548:0.0995294 549:0.305123 550:0.309881 551:0.0320012 552:0.0415375 553:0.00626235 554:0.0150162 555:0.00517764 556:0.00806121 557:0.0266043 558:0.309881 559:0.309881 560:0.149467 561:0.140597 562:0.068949 563:0.11253 564:0.106021 565:0.0921075 566:0.0869513 567:0.309881 568:0.309881 569:0.0852686 570:0.0876368 571:0.029655 572:0.0742983 573:0.0511602 574:0.0723411 575:0.106683 576:0.309881 577:0.340623 578:0.0351563 579:0.0415618 580:0.00594075 581:0.0148095 582:0.00496901 583:0.00900505 584:0.0266516 585:0.340623 586:0.340623 587:0.0262113 588:0.0156799 589:0.00156614 590:0.000284081 591:0.00560456 592:0.00789056 593:0.0146042 594:0.340623 595:0.340623 596:0.0799192 597:0.0792045 598:0.0253909 599:0.0678193 600:0.0473281 601:0.0628499 602:0.09309 603:0.340623 604:0.340623 605:0.0929006 606:0.0650331 607:0.0599899 608:0.0784996 609:0.0440546 610:0.056006 611:0.0516495 612:0.340623 613:0.335324 614:0.0215153 615:0.0127673 616:0.00153903 617:0.000275213 618:0.00492458 619:0.00680348 620:0.0114801 621:0.335324 622:0.335324 623:0.0694814 624:0.0751555 625:0.117335 626:0.0639329 627:0.0821788 628:0.037991 629:0.0405824 630:0.335324 631:0.335324 632:0.088249 633:0.0606091 634:0.0517466 635:0.0704516 636:0.0399868 637:0.0519578 638:0.0492792 639:0.335324 640:0.335324 641:0.0527496 642:0.0756509 643:0.101964 644:0.0780765 645:0.0691687 646:0.0396088 647:0.03047 648:0.335324 
